5881 50
65 -0.551744 -0.223408 -0.164307 -0.299620 0.267946 -0.220959 -0.218564 -0.014495 0.279227 -0.111542 0.267956 0.011057 0.117943 0.443382 -0.533600 -0.297252 0.616974 0.274192 -0.019958 0.164545 -0.309728 0.122486 0.023889 0.356062 0.144954 -0.548498 0.155374 0.824557 -0.002521 0.236245 -0.354965 0.538507 -0.182713 -0.176260 -0.154680 -0.228332 0.200171 0.099606 -0.662917 0.061619 0.148677 -0.225806 0.317115 -0.372914 -0.611366 0.464898 -0.050827 -0.462521 -0.075626 -0.413008
79 -0.541343 -0.254588 -0.148337 -0.289253 0.229429 -0.218326 -0.232991 -0.013031 0.245318 -0.133856 0.290085 0.020494 0.118612 0.443045 -0.518207 -0.319787 0.564048 0.241544 -0.006113 0.134343 -0.299038 0.112726 0.045978 0.362800 0.128472 -0.538459 0.179311 0.772316 0.016367 0.216358 -0.312401 0.556376 -0.184743 -0.190665 -0.138146 -0.254527 0.215799 0.052484 -0.674459 0.065121 0.176970 -0.195873 0.336101 -0.387111 -0.616990 0.477176 -0.083203 -0.480168 -0.094266 -0.433227
170 -0.409924 -0.719509 -0.009503 0.123612 0.402777 -0.264035 0.340519 -0.067738 -0.069878 0.452727 -0.127946 -0.044859 -0.303328 0.566987 -0.075107 -0.543241 0.333271 0.061545 0.066915 0.040361 0.368564 0.111792 -0.115297 0.011246 0.571392 -0.183513 0.105226 0.319218 0.322084 0.426715 0.496797 0.394964 -0.214852 -0.302993 -0.377487 0.142944 0.146838 0.158339 -0.168768 0.235402 0.377305 -0.257225 0.117920 -0.424135 0.102149 0.192388 -0.485569 0.128336 0.228439 -1.108266
103 -0.149814 -1.112409 0.131100 0.345154 0.143756 -0.632787 0.182955 0.156159 0.074569 0.402999 -0.497010 0.246131 0.227927 0.445020 -0.146817 -0.358018 0.286804 0.007420 -0.192668 0.044155 0.297143 0.227481 -0.193790 0.210356 0.513613 -0.114371 0.221922 0.403781 0.008349 0.144325 0.371517 0.509706 -0.048588 -0.257957 -0.151718 0.046541 -0.042099 0.039790 -0.169454 0.367017 0.382069 0.103453 0.276440 -0.435224 0.121662 0.571591 -0.169637 0.299542 0.294584 -0.924148
168 0.035553 -0.077973 0.136496 0.230781 -0.068602 -0.040802 0.261257 -0.013801 -0.095440 -0.386905 0.074332 0.258236 -0.121459 0.286182 -0.455756 -0.345924 -0.031183 -0.079232 0.122333 0.607054 0.203820 0.029294 -0.098930 0.449365 0.475737 -0.057030 -0.023235 0.449184 -0.362171 0.311074 0.302366 0.335635 0.035670 -0.040073 -0.155555 0.368518 0.313991 -0.071073 -0.489777 0.109541 0.190505 -0.681883 0.179484 -0.096062 -0.129660 0.684077 -0.243845 -0.268595 0.374458 -0.447691
140 0.019150 -0.084828 0.166321 0.263901 -0.029653 -0.058935 0.197229 -0.015153 -0.079504 -0.410029 0.078105 0.255076 -0.134733 0.268637 -0.447884 -0.348132 -0.048038 -0.044984 0.111409 0.621908 0.201933 -0.009847 -0.096591 0.486208 0.480431 -0.031450 -0.014469 0.481704 -0.337596 0.293293 0.295025 0.362942 0.025660 -0.020907 -0.138170 0.389801 0.302369 -0.074765 -0.431661 0.128448 0.166013 -0.699820 0.194026 -0.072342 -0.176705 0.675385 -0.243509 -0.256055 0.336602 -0.438858
86 0.045470 -0.093966 0.162814 0.244711 -0.045477 -0.066847 0.236438 -0.005871 -0.093392 -0.388334 0.092407 0.260352 -0.087862 0.268135 -0.443794 -0.332727 -0.017515 -0.067197 0.103569 0.581760 0.189895 -0.030222 -0.088784 0.463193 0.517714 -0.039122 -0.006311 0.442719 -0.350245 0.274116 0.291607 0.365863 0.046804 -0.046990 -0.172219 0.369916 0.311951 -0.096807 -0.457360 0.136011 0.201441 -0.698961 0.218940 -0.087334 -0.171522 0.683965 -0.228415 -0.291211 0.341022 -0.436297
83 0.057131 -0.120747 0.160354 0.223531 -0.062582 -0.081718 0.247124 0.039090 -0.080670 -0.399144 0.084706 0.267038 -0.116741 0.261437 -0.435615 -0.346732 -0.018131 -0.031434 0.136322 0.593048 0.210379 0.002299 -0.096835 0.493299 0.514866 -0.024115 0.017419 0.439759 -0.325448 0.272229 0.306263 0.367194 0.035887 -0.040302 -0.156198 0.382419 0.322246 -0.078384 -0.453750 0.106864 0.153967 -0.669366 0.206573 -0.080654 -0.169786 0.671996 -0.245967 -0.244877 0.329517 -0.446845
175 -0.184551 -0.400639 0.053230 0.048694 -0.072952 -0.111589 0.202778 -0.220813 -0.137763 -0.104152 -0.074940 0.105863 -0.191552 0.602827 -0.302765 -0.373598 0.504757 -0.204808 0.238000 0.594521 0.057830 -0.084930 -0.147267 0.095561 0.373801 -0.565838 0.041105 0.485898 -0.109685 -0.256092 -0.049023 0.379169 -0.107315 -0.146461 0.215718 0.150463 0.283264 -0.123669 -0.219397 0.011996 0.177656 -0.567335 0.114032 -0.140836 -0.332004 0.737088 0.070886 -0.226898 -0.146258 -0.456661
116 -0.194157 -0.400998 0.075260 0.078885 -0.065896 -0.117230 0.217345 -0.237823 -0.133499 -0.110328 -0.059843 0.101645 -0.222380 0.606733 -0.297604 -0.337911 0.488863 -0.198228 0.221849 0.567786 0.090811 -0.054263 -0.122328 0.084838 0.369828 -0.534464 0.048338 0.495181 -0.093761 -0.260364 -0.049678 0.390283 -0.130980 -0.154425 0.213885 0.166274 0.301186 -0.099481 -0.203535 0.037516 0.177054 -0.569702 0.107885 -0.128099 -0.360862 0.750749 0.095109 -0.234426 -0.124698 -0.439617
55 -0.184781 -0.412320 0.061345 0.080613 -0.048339 -0.088917 0.222217 -0.250962 -0.145826 -0.082329 -0.054860 0.093939 -0.192791 0.574139 -0.281435 -0.359822 0.524348 -0.175379 0.220193 0.560905 0.060382 -0.045274 -0.109947 0.089473 0.356138 -0.536701 0.047924 0.486031 -0.113875 -0.291895 -0.086397 0.370450 -0.130193 -0.109987 0.233008 0.101623 0.320464 -0.103445 -0.253373 0.045151 0.190877 -0.549949 0.117353 -0.124527 -0.376379 0.762312 0.099126 -0.234457 -0.103220 -0.444669
74 0.119195 -0.473195 0.033146 -0.033615 -0.009731 -0.121718 0.015482 -0.136352 -0.132243 -0.231295 -0.006381 0.258000 -0.040563 0.457248 -0.173472 -0.495024 0.518633 -0.013132 0.326309 0.532409 -0.247196 0.031752 -0.046330 0.122277 0.232406 -0.457531 0.048073 0.692555 0.156087 -0.133170 0.066248 0.490986 -0.028623 -0.295534 -0.064235 0.226277 -0.049004 -0.327334 -0.274792 -0.000109 0.087241 -0.682113 0.137555 -0.019222 -0.267622 0.688934 -0.236178 -0.215947 -0.173289 -0.181384
9 0.153729 -0.448994 0.062574 -0.028802 -0.012490 -0.129298 0.009296 -0.154619 -0.119918 -0.215979 0.006709 0.241912 -0.053120 0.454837 -0.170737 -0.479898 0.527757 -0.012112 0.314896 0.501872 -0.267875 0.057531 -0.059767 0.138238 0.222604 -0.449694 0.033816 0.683483 0.163171 -0.176604 0.087670 0.513715 -0.058852 -0.282208 -0.060567 0.213629 -0.070790 -0.296212 -0.281598 -0.016684 0.105721 -0.635798 0.146400 -0.051503 -0.249636 0.635137 -0.262200 -0.204713 -0.156003 -0.225383
71 0.161316 -0.499612 0.055734 0.002885 0.004692 -0.135766 -0.006911 -0.145793 -0.149814 -0.191541 -0.014636 0.284626 -0.041714 0.467777 -0.175030 -0.471333 0.530308 0.024697 0.320579 0.507818 -0.297237 0.062601 -0.058922 0.136688 0.234794 -0.473990 0.072821 0.684643 0.168016 -0.141917 0.082853 0.491078 -0.074073 -0.322625 -0.056719 0.213579 -0.047756 -0.303691 -0.279211 -0.051734 0.088572 -0.643336 0.136083 -0.047885 -0.266106 0.669350 -0.256084 -0.216778 -0.179756 -0.209414
16 -0.064657 -0.431067 -0.086126 -0.016601 0.051708 0.030378 0.148551 -0.228723 -0.226453 -0.264628 -0.161910 0.155662 -0.124083 0.535067 -0.329916 -0.374812 0.557145 -0.154079 0.182667 0.555544 -0.256730 -0.031482 -0.055461 0.205054 0.303376 -0.425536 -0.000741 0.721425 0.003555 -0.149109 0.099961 0.368611 -0.105033 -0.214319 0.176157 0.236784 0.021105 -0.291641 -0.315007 0.112344 0.095755 -0.635372 -0.028910 -0.097296 -0.245338 0.624036 -0.299974 -0.216956 0.004362 -0.318490
145 0.153947 -0.487842 0.067928 -0.003059 -0.001308 -0.092836 0.042707 -0.133369 -0.149996 -0.197955 -0.028997 0.255232 -0.062571 0.471762 -0.156564 -0.465542 0.539468 -0.039849 0.335784 0.502981 -0.223304 0.059000 -0.052534 0.135274 0.232550 -0.489324 0.056972 0.688538 0.157982 -0.172104 0.081776 0.507668 -0.051547 -0.318096 -0.034879 0.217346 -0.096326 -0.319578 -0.284020 -0.034512 0.106781 -0.649134 0.106739 -0.050152 -0.232424 0.644794 -0.238263 -0.227987 -0.175136 -0.241499
182 0.098124 -0.680361 0.079708 0.164976 -0.033044 -0.263362 0.231687 -0.719307 -0.090167 0.125185 0.109349 0.070096 0.660873 0.856184 -0.235770 -0.450244 -0.107588 0.234978 0.115349 0.693802 0.029633 0.792930 -0.095382 -0.561745 0.257057 0.057816 -0.027068 0.720481 -0.082646 0.036498 0.509315 0.628790 -0.054596 -0.326678 -1.122848 -0.199675 -0.106962 0.458381 -0.097698 -0.065060 0.581940 -0.194195 0.018277 -0.344918 0.177735 0.510991 0.127225 0.261009 0.184241 -0.439873
46 0.156109 -0.232811 0.544830 0.253959 0.182673 -0.303686 0.128619 -0.140543 0.026679 0.314793 -0.087772 0.356267 -0.486281 -0.000795 -0.369260 -0.572024 -0.166227 -0.033624 0.292756 0.498839 -0.201469 0.370866 -0.109059 0.867761 0.291569 -0.270346 -0.036751 0.855706 -0.287288 0.477712 -0.083010 -0.126312 -0.765576 0.006597 -0.710687 -0.342984 0.081612 -0.015305 -0.220930 -0.118070 -0.377722 0.056162 0.061441 -0.722155 -0.137952 0.783276 -0.380416 -0.191389 -0.251364 -0.788121
154 -0.200873 -0.913147 0.063917 0.284288 0.285792 -0.502547 0.220318 0.082775 0.007895 0.459848 -0.331946 0.178269 0.077146 0.544239 -0.112390 -0.351827 0.249186 0.023176 -0.125056 0.162092 0.369841 0.204804 -0.079292 0.160038 0.526031 -0.157707 0.112507 0.341906 0.254817 0.255082 0.380649 0.424148 -0.093864 -0.290335 -0.296972 0.059463 0.017327 0.136600 -0.175461 0.301452 0.459639 -0.100665 0.185366 -0.405363 0.041344 0.510631 -0.368595 0.306592 0.178812 -0.905299
172 -0.108782 -0.249624 0.398796 0.102772 0.073680 -0.002411 -0.031493 0.196110 0.166885 -0.234686 0.112010 0.367691 -0.303194 0.196144 -0.585448 -0.323978 0.030019 -0.095309 0.026541 0.737899 0.125706 -0.026865 0.081041 0.222143 0.442774 -0.232996 0.103687 0.691076 -0.292261 0.217292 -0.135808 0.170590 0.255490 0.312092 -0.521023 0.130663 0.311793 0.192717 -0.132388 0.207452 0.258975 -0.520986 0.128392 0.015116 0.235684 0.513425 -0.572181 -0.285992 0.320852 -0.660280
94 0.003564 -0.218491 0.283501 0.180908 -0.071672 -0.230470 0.100185 0.084423 0.000316 -0.346063 0.148179 0.271711 -0.215528 0.235168 -0.525942 -0.307910 0.006225 -0.040249 0.013186 0.634359 0.140291 0.079030 0.073703 0.340231 0.565097 -0.027964 0.107723 0.540513 -0.365060 0.209125 0.056287 0.241211 0.170565 0.148025 -0.248360 0.185015 0.374193 -0.025936 -0.265603 0.146532 0.159174 -0.621411 0.156802 -0.024559 0.065086 0.567304 -0.391825 -0.356754 0.338261 -0.606589
52 0.000859 -0.105144 0.688289 0.170355 0.126151 -0.183808 -0.164713 0.231567 0.181016 -0.012892 0.063364 0.246614 -0.269476 0.331101 -0.411022 -0.237435 -0.091559 -0.205220 0.254555 0.509479 0.307572 0.365780 -0.042081 0.302819 0.396496 -0.202204 -0.057885 0.967290 -0.294448 0.176311 0.046647 0.304680 -0.091863 -0.027595 -0.342799 -0.197010 0.289198 -0.107186 -0.020819 -0.141269 0.052569 -0.292264 0.186276 -0.231703 0.313577 0.458773 -0.786896 -0.172058 0.179071 -0.654262
66 -0.061100 -0.547346 0.605936 0.246186 -0.380929 -0.310334 0.302659 -0.000310 0.093248 -0.111505 -0.256374 0.129946 -0.249170 0.198956 -0.440690 -0.064689 0.030525 0.139804 0.092331 0.394391 0.027438 0.214326 0.087333 0.639185 0.480336 -0.240965 0.088577 0.238347 -0.627791 0.209975 0.110097 0.702466 -0.253767 0.096609 -0.435303 -0.206581 0.405809 0.246716 -0.563558 -0.222754 0.248777 -0.467324 0.295463 -0.138584 -0.189797 0.405037 -0.693780 -0.474583 0.093787 -0.282176
31 -0.265952 -0.031580 -0.878509 0.610000 0.012212 -0.056828 0.151093 -0.048148 0.269348 0.028056 -0.110976 0.226035 0.177883 0.290054 -0.500609 -0.501951 -0.359233 -0.135966 0.047346 0.083118 -0.010853 0.113708 0.309057 0.150021 0.453129 0.484251 0.597420 -0.195293 -0.045000 -0.671220 -0.428868 0.165572 -0.263532 -1.000014 0.099782 0.384008 -0.042791 0.524091 0.093177 -0.455022 -0.638096 0.350455 0.215317 0.364364 -0.030107 0.058758 -0.591030 -0.258637 0.351515 0.131496
89 -0.323926 -0.079427 -0.833995 0.477399 0.004457 0.048338 0.327716 -0.052206 0.524082 0.134810 -0.024888 0.238687 0.188251 0.212188 -0.613433 -0.542200 -0.354864 -0.253666 0.032211 0.036195 -0.024861 0.207015 0.294669 -0.072104 0.294813 0.417046 0.581050 -0.097545 -0.008522 -0.655854 -0.430381 0.042994 -0.162920 -1.001595 0.237724 0.259789 -0.032557 0.451791 0.111966 -0.450277 -0.574035 0.346813 0.075397 0.308825 0.174680 0.293969 -0.684142 -0.224743 0.230619 -0.006501
137 -0.361853 -0.067190 -0.841708 0.496713 0.030483 0.062264 0.379375 -0.044142 0.544957 0.168570 -0.046984 0.197750 0.128425 0.223606 -0.582561 -0.535650 -0.364599 -0.267055 0.058112 0.032919 -0.027146 0.267080 0.300687 -0.053150 0.294850 0.449832 0.549908 -0.124940 0.000490 -0.623071 -0.472114 0.090526 -0.180742 -1.023795 0.216990 0.331507 -0.054012 0.473185 0.092994 -0.478204 -0.594231 0.397381 0.043116 0.289532 0.140550 0.277513 -0.677887 -0.246574 0.240827 -0.019232
271 -0.308149 -0.150566 -0.761459 0.584074 0.037514 0.023658 0.097729 -0.054121 0.385492 0.068518 -0.059333 0.248235 0.253809 0.237915 -0.498186 -0.780624 -0.443782 -0.148565 0.010169 0.083832 -0.062357 -0.000046 0.363968 -0.017913 0.348832 0.545684 0.736163 -0.043894 -0.199936 -0.489743 -0.465755 0.067603 -0.090691 -1.085617 0.213908 0.269355 -0.047199 0.635167 0.081787 -0.428928 -0.661239 0.244377 0.260739 0.273217 -0.052715 0.059852 -0.609772 -0.100805 0.282270 0.130031
106 0.028883 -0.299908 0.463482 0.139736 -0.277823 -0.180438 0.126883 -0.109743 0.024223 0.070055 -0.153684 0.395879 -0.175885 0.378364 -0.322076 -0.168142 -0.147141 0.078001 0.324612 0.548761 0.211546 -0.164856 -0.014200 0.421057 0.375162 -0.220831 0.137009 0.486584 -0.301895 0.441439 -0.009141 0.421209 -0.824014 0.111612 -0.396222 -0.322792 0.331659 0.139821 -0.381989 -0.390077 -0.089350 -0.273045 0.074471 -0.169134 0.032252 0.532012 -0.400493 -0.219642 -0.076404 -0.844384
255 -0.338170 -0.020580 -0.869551 0.609944 -0.012226 -0.014812 0.174736 0.014968 0.331211 0.082718 0.002968 0.198450 0.054947 0.362328 -0.476641 -0.404414 -0.407191 -0.169835 0.039713 0.031397 -0.025333 0.108412 0.293311 0.047306 0.397177 0.385161 0.524831 -0.150796 0.045971 -0.660723 -0.348049 0.250716 -0.296577 -1.013874 0.104544 0.383242 -0.034361 0.483043 0.090149 -0.447989 -0.588906 0.409850 0.196871 0.313781 0.022910 0.115632 -0.701641 -0.321619 0.223249 0.154850
162 -0.215388 0.152547 -0.625420 0.266499 -0.040540 0.087016 0.608993 0.345510 0.335112 -0.100130 0.329137 0.258191 0.002822 0.246182 -0.388226 -0.517200 -0.805202 -0.176657 0.012103 0.002711 -0.145630 -0.389109 -0.037274 0.032980 0.411117 0.043008 -0.021823 -0.245035 0.267155 -1.085920 -0.119165 0.139616 -0.230073 -0.769807 -0.215195 0.254046 -0.307014 0.295771 -0.350700 -0.226118 -0.266311 0.831026 0.261287 0.498862 -0.238473 0.335467 -0.920115 -0.370361 0.098573 -0.111695
157 -0.221487 0.165473 -0.618689 0.241922 -0.010701 0.146087 0.627869 0.344439 0.295796 -0.042710 0.324066 0.225037 -0.048472 0.277630 -0.412221 -0.523724 -0.808828 -0.238210 0.006936 -0.044115 -0.136119 -0.372504 -0.053564 0.010145 0.361515 -0.023498 -0.021750 -0.269071 0.241864 -1.036580 -0.104588 0.125781 -0.203085 -0.840134 -0.255117 0.207327 -0.316811 0.331489 -0.356308 -0.203945 -0.281860 0.774197 0.231580 0.439453 -0.224929 0.325059 -0.926808 -0.321308 0.125569 -0.105291
138 -0.118931 0.023198 -0.928994 0.602777 -0.000302 -0.055022 0.032527 -0.020750 0.117085 -0.108758 -0.232465 0.236024 0.083430 0.178999 -0.543951 -0.444378 -0.311810 -0.011944 -0.027669 -0.070001 -0.039632 0.079552 0.150169 0.152793 0.543190 0.363200 0.499974 -0.282307 0.144393 -0.887193 -0.381372 0.226389 -0.459381 -0.881709 -0.089289 0.369090 -0.073096 0.390470 0.077790 -0.499132 -0.598826 0.441166 0.263195 0.301767 -0.119402 0.080300 -0.540009 -0.410360 0.449025 0.039808
131 -0.230873 -0.351284 0.062358 0.002687 0.383257 -0.041203 0.339013 -0.071130 -0.157241 0.467432 -0.046200 -0.002220 -0.371522 0.555562 -0.102797 -0.512525 0.322037 -0.054538 0.067524 0.098507 0.296338 0.092913 -0.180593 0.301949 0.407275 -0.226583 -0.064185 0.433883 0.076810 0.398460 0.355194 0.295048 -0.348953 -0.291126 -0.480610 0.162450 0.231909 -0.040015 -0.291472 0.095114 0.177984 -0.185498 0.155753 -0.202681 0.107146 0.100001 -0.605881 0.106583 0.213312 -1.069181
218 0.068032 -0.170676 -0.250213 0.193952 0.095625 0.078852 0.545782 0.135336 0.263811 0.433442 0.845356 0.671927 -0.078126 0.080474 -0.140381 -0.360832 -0.813713 -0.683397 0.018745 0.025251 -0.192056 -0.395338 0.344621 0.083948 0.409174 -0.296236 0.436812 -0.043273 0.223794 -1.319348 -0.438186 0.201565 -0.185515 -0.828092 0.015511 0.406293 -0.146776 0.936787 0.111837 -0.636199 0.200526 0.900275 -0.106783 0.572097 -0.518429 0.424738 -0.300076 -0.324278 0.443167 -0.271549
264 -0.003751 -0.167876 -0.371766 0.200868 0.119843 0.008114 0.528788 0.121091 0.292524 0.357085 0.861608 0.630239 -0.064725 0.082388 -0.136767 -0.306530 -0.798378 -0.720273 0.059206 0.033370 -0.060547 -0.387376 0.348527 0.131575 0.407011 -0.316703 0.476613 -0.032725 0.285293 -1.282940 -0.477758 0.178901 -0.178320 -0.787856 -0.021051 0.440147 -0.187163 0.915090 0.092412 -0.611616 0.190818 0.829738 -0.060782 0.539581 -0.538721 0.425576 -0.247128 -0.303405 0.514860 -0.187711
188 -0.256597 -0.145750 -0.578827 0.545146 0.180606 0.009628 0.134054 -0.116741 0.392776 0.012705 -0.088691 0.176104 0.253610 0.204375 -0.487338 -1.106851 -0.573027 -0.101914 0.056754 0.106443 -0.280265 -0.290756 0.329219 -0.200531 0.350561 0.676818 0.899360 0.128128 -0.357482 -0.378318 -0.460018 -0.002572 0.113295 -1.031292 0.377503 0.041672 -0.081077 0.842667 0.038216 -0.306679 -0.612219 0.060037 0.264750 0.106642 -0.128507 -0.011008 -0.511699 0.139451 0.275798 0.158628
122 0.244761 -0.012867 -0.555959 0.569431 0.453417 -0.040935 -0.264768 0.387950 0.274956 -0.254513 -0.293877 0.081536 -0.145599 0.014863 -0.834317 -0.673550 -0.696802 0.233453 0.359750 -0.218800 -0.051598 -0.246318 -0.261701 -0.351109 0.831901 0.022487 0.196284 -0.310049 0.410898 -1.325659 -0.337807 -0.143353 -0.171645 -0.926165 -0.666971 0.066391 -0.207236 0.324063 -0.006283 -0.543356 -0.557387 -0.018355 0.318269 0.068403 0.013482 -0.036066 -0.234931 -0.462997 0.511669 -0.147029
234 0.000885 0.806388 0.332692 0.534156 -0.300379 -0.349101 -0.049022 -0.331641 0.923271 0.334341 -0.173062 0.015757 -0.397049 0.193555 -0.705644 -0.446179 0.334407 0.266591 -0.352027 0.579172 0.007535 -0.040744 0.846486 -0.248685 0.288852 -0.468944 0.086116 0.384982 0.523482 0.076301 0.411951 -0.297904 -0.800743 -0.760426 -0.155605 0.363872 -0.104130 0.186263 -0.219820 0.608250 0.166552 0.368975 0.310519 0.722744 0.175757 0.072672 0.480146 0.147057 0.454733 0.194823
388 0.205845 -0.703516 0.059151 0.175600 -0.041809 -0.274944 0.249588 -0.902316 -0.159417 0.097586 0.204707 0.113905 0.752038 0.941286 -0.214201 -0.576922 -0.110007 0.222369 0.108437 0.805777 -0.046006 0.829243 -0.105302 -0.656972 0.325311 0.069908 0.010830 0.780299 -0.157064 -0.044904 0.583670 0.627101 0.032480 -0.362245 -1.231520 -0.260497 -0.141572 0.522780 -0.170057 -0.104822 0.692808 -0.163342 -0.011347 -0.333156 0.144614 0.484891 0.168873 0.374127 0.163461 -0.516343
211 -0.094269 0.110466 -0.445413 0.310869 -0.159563 -0.376325 0.118373 0.645568 0.091891 -0.253927 0.182742 0.156488 0.118359 0.303879 -0.707159 -0.686659 -0.942179 0.072073 -0.291144 -0.261185 0.158837 -0.236634 -0.270016 -0.297230 0.873459 -0.388831 0.112331 -0.156571 0.433607 -1.307335 -0.129389 -0.120180 -0.167416 -0.899101 -0.352191 -0.269567 -0.462330 0.142717 -0.263025 -0.322100 -0.258520 0.292907 0.304864 0.561596 -0.311137 0.009046 -0.780827 -0.016756 0.044003 0.062784
263 -0.797096 -0.711130 -0.003435 0.652262 0.594178 -0.210235 0.497108 0.570723 -0.200130 -0.265081 -0.220461 0.146567 0.168948 0.423514 -0.918027 -0.325216 -1.115675 0.289540 0.394169 -0.112275 0.591970 -0.537744 0.468135 0.405058 0.673024 -0.127598 0.662841 0.795020 0.740609 -1.382360 -0.320271 -0.380778 -0.901517 -0.357762 -0.165629 0.464777 0.179207 1.066285 0.206734 0.103352 -0.104626 0.424763 -0.610927 -0.078836 0.057319 0.303985 -0.506439 0.187404 -0.181999 1.437066
185 0.209603 -0.061286 -0.467812 0.508164 0.546416 -0.030955 -0.277869 0.444069 0.320271 -0.275352 -0.351406 -0.009575 -0.128310 -0.011300 -0.800854 -0.706354 -0.689466 0.251481 0.395120 -0.233115 -0.046030 -0.317796 -0.306730 -0.290708 0.809500 -0.055981 0.214770 -0.274197 0.383635 -1.386832 -0.339375 -0.207476 -0.174857 -0.931459 -0.686229 0.031369 -0.171110 0.388369 -0.046092 -0.506129 -0.549121 0.016307 0.284411 -0.003223 0.067191 -0.087449 -0.184738 -0.488327 0.534083 -0.155621
53 0.231602 0.035904 -0.531985 0.564745 0.387697 -0.085421 -0.182432 0.348454 0.296770 -0.262350 -0.337062 0.132047 -0.091902 0.016763 -0.760293 -0.621158 -0.649147 0.192212 0.282307 -0.192609 -0.044662 -0.244057 -0.352141 -0.229885 0.773878 0.029188 0.202441 -0.338651 0.390973 -1.321949 -0.318880 -0.178582 -0.177791 -0.940998 -0.612972 0.013534 -0.188156 0.305405 0.016423 -0.524628 -0.534412 0.084149 0.366454 0.084984 -0.009891 0.015572 -0.288361 -0.436459 0.460296 -0.174499
47 -0.279637 -0.197907 -0.583612 0.530661 0.150484 0.025295 0.180824 -0.070636 0.423450 0.081720 -0.093281 0.166846 0.277106 0.244620 -0.515221 -1.005862 -0.522898 -0.109980 0.066974 0.073919 -0.182101 -0.185502 0.356762 -0.075748 0.323518 0.585691 0.803226 0.062113 -0.345414 -0.456194 -0.479097 -0.012186 0.045645 -1.041857 0.315160 0.165220 0.010750 0.820423 0.064193 -0.346554 -0.609602 0.195301 0.261759 0.202527 -0.113394 -0.024421 -0.570156 0.068466 0.215378 0.185038
99 -0.354658 -0.737358 0.029044 0.027667 0.317792 -0.156757 0.271131 -0.027906 0.048870 0.386534 -0.209327 -0.221598 -0.018994 0.427866 -0.212168 -0.380085 0.159930 0.039966 0.057272 0.243086 0.105150 0.033097 -0.043412 -0.175727 0.562024 -0.283011 0.012358 0.412057 -0.094936 0.438598 0.417309 0.619416 -0.086823 -0.364276 -0.373192 0.141465 0.106923 0.036556 -0.073536 0.081596 0.372015 -0.143520 0.188219 -0.449266 0.243951 0.398452 -0.257451 0.067357 0.076789 -0.846414
133 -0.246264 -0.189972 -0.560081 0.533945 0.158863 0.041232 0.162251 -0.101206 0.418251 0.062988 -0.082450 0.172643 0.264178 0.237838 -0.534757 -1.097709 -0.472343 -0.073549 0.044694 0.105286 -0.242039 -0.187670 0.347823 -0.198761 0.320296 0.589312 0.874517 0.081873 -0.320322 -0.473714 -0.482574 -0.033059 0.087550 -0.999953 0.315263 0.057095 -0.006277 0.850368 0.045681 -0.342174 -0.589525 0.126371 0.251538 0.177183 -0.053796 -0.014783 -0.562236 0.100025 0.221086 0.144056
5 0.282128 0.275467 0.233741 1.090344 -0.410359 -0.293757 -0.086030 -0.048164 0.970855 0.546549 -0.263661 -0.021165 -0.398743 0.048878 -0.795348 -0.370373 0.242366 0.340152 -0.405827 0.461454 -0.654716 -0.207839 0.838408 -0.358895 0.448683 -0.681538 -0.063247 0.562736 -0.052328 0.115787 0.830196 -0.316738 -0.752513 -0.806052 0.084032 0.376751 -0.120292 0.204054 -0.450238 0.366746 0.091407 0.469256 0.397858 0.391280 0.550991 -0.142437 0.686721 -0.350669 0.726792 0.397206
193 -0.318695 -0.058577 -0.849781 0.419769 -0.038112 0.102354 0.440937 -0.072009 0.575117 0.208325 -0.068985 0.236034 0.106270 0.140170 -0.681416 -0.460730 -0.317928 -0.320390 0.041418 -0.031503 0.005817 0.236027 0.190511 -0.066127 0.351113 0.296418 0.472443 -0.149845 0.100074 -0.777194 -0.422402 0.058358 -0.169375 -0.955535 0.203266 0.314079 -0.025402 0.340601 0.080048 -0.464914 -0.465121 0.427979 0.020842 0.336870 0.200666 0.396702 -0.670425 -0.248232 0.232499 -0.051977
76 -0.005200 0.937674 0.533160 0.664292 -0.261443 -0.372461 -0.016408 -0.206102 1.046723 0.331681 -0.183679 0.161408 -0.410179 0.117022 -0.663128 -0.497860 0.412346 0.211321 -0.251340 0.511529 0.023829 0.096405 0.780348 -0.384539 0.421604 -0.387413 0.116678 0.394623 0.499745 0.113794 0.412895 -0.161319 -0.784197 -0.753279 -0.042545 0.432520 -0.097154 0.219385 -0.280129 0.650170 0.137918 0.474583 0.228443 0.739370 -0.039790 0.156683 0.474985 0.177874 0.391415 0.297865
165 0.031367 0.030492 -0.897782 0.591212 0.088337 -0.027979 -0.061913 0.041340 0.110184 -0.172662 -0.301326 0.200869 0.003595 0.067792 -0.566380 -0.481400 -0.321865 0.080825 0.016575 -0.121408 -0.089006 -0.082850 0.016807 0.104268 0.684896 0.243890 0.412565 -0.376066 0.255381 -1.056618 -0.352459 0.168515 -0.478329 -0.800683 -0.250978 0.363600 -0.070426 0.351520 0.048724 -0.474222 -0.536686 0.337164 0.285184 0.189026 -0.094209 0.065854 -0.414911 -0.477542 0.484886 -0.037028
208 -0.155741 -0.008267 -0.525600 0.216040 0.017875 0.135632 0.675420 0.227678 0.393086 0.133855 0.518358 0.377006 -0.057067 0.166599 -0.297157 -0.379742 -0.791035 -0.400580 0.019773 0.045617 -0.115014 -0.354735 0.086996 -0.027488 0.300676 -0.111881 0.130941 -0.156989 0.272691 -1.039170 -0.275508 0.118094 -0.241392 -0.746484 -0.101936 0.268155 -0.191389 0.546100 -0.206351 -0.311759 -0.115603 0.817179 0.210804 0.525443 -0.278948 0.383520 -0.698106 -0.351095 0.225816 -0.164635
260 -0.063314 1.507320 0.945249 0.484281 -0.213736 -0.208833 0.041422 -0.053405 1.124674 0.402933 -0.130617 0.318410 -0.289636 0.274463 -0.416767 -0.807294 0.498404 -0.022187 -0.174936 -0.006352 0.510529 0.188306 0.406268 -0.299648 0.668469 -0.299053 0.080032 0.457087 0.448317 0.103105 0.522528 0.098503 -0.734367 -1.046473 0.168251 0.342165 -0.314815 0.164134 -0.276294 0.654658 0.040156 0.331516 -0.084193 0.522238 -0.279761 0.372220 0.269065 0.437312 0.364524 0.382439
8 -0.069427 0.911804 0.518164 0.405974 -0.133001 -0.516275 0.109740 -0.377068 0.903449 0.247593 -0.330243 -0.087875 -0.462431 0.183116 -0.549269 -0.625846 0.299853 0.446163 -0.233678 0.635309 -0.032853 0.026046 0.859735 -0.248446 0.313235 -0.220650 0.222249 0.172186 0.572050 0.107195 0.302283 -0.109742 -0.749636 -0.751114 -0.052450 0.352017 -0.031548 0.234061 -0.230432 0.846624 0.146657 0.497453 0.285714 0.841967 -0.251882 0.051914 0.339328 0.227696 0.181984 0.115222
105 -0.225526 0.031377 -0.627698 0.324214 0.022965 0.184283 0.616501 0.121989 0.500899 0.155990 0.372328 0.266650 0.045225 0.212557 -0.408016 -0.383161 -0.616417 -0.380712 0.092036 0.066562 -0.064950 -0.073592 0.155526 0.039537 0.194910 0.074983 0.216878 -0.197926 0.200792 -0.888894 -0.302160 0.192381 -0.236928 -0.843862 -0.099206 0.326009 -0.113307 0.505942 -0.127794 -0.332820 -0.275866 0.719642 0.141725 0.434607 -0.073103 0.349173 -0.830760 -0.377573 0.177355 -0.080748
44 0.050897 0.594534 0.495590 0.157351 -0.258960 -0.645790 0.084559 -0.534082 0.599550 -0.036249 -0.341019 -0.259435 -0.581725 0.170723 -0.393417 -0.594864 0.329380 0.123281 -0.314730 0.671497 0.041739 -0.292598 1.015553 0.103362 -0.041895 -0.514242 0.432400 -0.049939 0.402017 -0.008385 0.220409 -0.280975 -0.427980 -0.725668 -0.260925 0.021116 -0.211545 0.212806 -0.216345 0.840616 -0.023787 0.577828 0.461588 0.685221 0.069510 -0.025563 0.218415 -0.215420 0.404712 0.040164
169 -0.862210 -0.581845 -0.586561 0.230737 -0.179611 0.572735 0.318383 0.353108 0.229394 -0.412050 0.114028 0.494720 0.030197 -0.108359 -0.625614 -0.436174 -0.927250 0.027120 -0.256249 -0.391518 0.723111 -0.895214 0.535457 -0.590383 0.362629 -0.149705 0.539838 0.606635 0.272796 -0.844269 -0.407529 0.095805 -0.614147 -0.526564 -0.229619 -0.128693 -0.637134 0.374968 -0.249334 0.006016 -0.275527 0.677960 0.199381 0.235431 0.090860 0.422527 -0.631992 -0.301098 0.051612 0.258286
317 -0.496317 -0.240612 0.104625 -0.423662 -0.236748 0.233631 -0.420015 -0.203474 0.502650 -0.836378 -0.528728 1.343110 -0.389843 0.751313 0.648406 -0.137332 -0.817032 -0.006304 -0.210687 0.122605 0.054098 1.030765 0.791530 0.384026 0.669330 -0.534026 -0.142589 0.441213 0.226519 -0.194874 0.165987 -0.419014 -0.091915 -1.366119 0.097259 0.652054 0.338075 0.084338 -0.193382 -0.081619 0.505333 0.224775 0.751955 -0.502158 -0.058284 -0.443667 0.217120 -0.603169 -0.171169 0.083101
486 -0.709547 -0.186375 -0.036275 -0.731334 -0.110624 -0.194733 0.347967 -0.282843 0.129135 -1.231387 -0.699616 0.666716 -0.862050 0.458604 0.055567 0.039413 -0.325947 0.346866 -0.351902 0.089573 -0.412933 1.418937 0.563638 -0.292736 1.480455 -0.239735 0.752504 0.219243 0.009576 -0.150808 -0.329195 -1.473480 -0.074903 -1.190240 0.467988 -0.015620 0.485736 -0.141887 -0.839342 -0.328615 0.618272 0.631023 -0.697784 0.024048 0.201465 0.172931 0.323031 -0.616305 -0.079647 -0.816361
1218 -0.798238 -0.860900 0.087935 0.781501 0.605512 -0.398797 0.511708 0.707439 -0.278606 -0.365029 -0.253652 0.157705 0.193698 0.460490 -0.999507 -0.310820 -1.363849 0.365429 0.361304 -0.038577 0.688004 -0.407767 0.528752 0.495091 0.687272 -0.118908 0.632030 0.932941 1.005092 -1.433407 -0.259649 -0.462181 -0.936487 -0.433052 -0.322130 0.493365 0.142690 1.014924 0.268629 0.153881 -0.246717 0.385061 -0.617153 -0.088457 0.056051 0.370746 -0.552007 0.270626 -0.370374 1.679264
87 -0.185111 -0.174782 -0.564897 0.201718 0.007655 0.270671 0.675428 0.098538 0.527533 0.223688 0.407198 0.343695 -0.055906 0.050467 -0.430408 -0.356959 -0.722088 -0.454652 0.129902 -0.046468 -0.105870 -0.201332 0.077170 -0.034964 0.211826 -0.048587 0.206979 -0.164985 0.354370 -0.890631 -0.333042 0.078563 -0.371620 -0.739796 -0.046846 0.260387 -0.013549 0.458213 -0.090741 -0.337743 -0.162786 0.845565 0.237128 0.478577 -0.098802 0.477117 -0.609308 -0.364698 0.319184 -0.175188
313 0.084094 0.625300 0.492912 0.109910 -0.311497 -0.423736 0.281549 -0.510108 0.583952 -0.085060 -0.332636 -0.385170 -0.526629 0.234268 -0.525368 -0.409699 0.239236 0.063202 -0.304014 0.504478 0.112672 -0.261269 0.936882 0.034670 -0.009461 -0.433337 0.355330 -0.007376 0.304600 -0.104021 0.320054 -0.224820 -0.529729 -0.868721 -0.230969 0.093480 -0.101723 0.057426 -0.102277 0.878332 0.111857 0.516163 0.370751 0.518072 0.193180 0.260590 0.258875 -0.196467 0.435863 0.111880
161 0.074514 0.558949 0.496171 0.325731 -0.513530 -0.421273 0.107928 -0.419601 0.720004 0.066715 -0.239215 -0.240456 -0.455743 0.178849 -0.416598 -0.679647 0.198336 0.483702 -0.325041 0.748304 -0.003296 -0.305294 0.967342 -0.058434 0.106886 -0.330447 0.438929 -0.016171 0.593551 0.002921 0.279165 -0.121937 -0.801712 -0.699448 -0.023852 0.140361 0.022290 0.053992 -0.176762 0.743077 0.180697 0.480805 0.585043 0.789557 -0.081926 0.004400 0.278544 -0.087668 0.266078 0.071653
250 0.234894 0.729448 0.859891 -0.080160 -0.112324 -0.285471 -0.033109 -0.536279 0.214561 -0.541494 -0.681441 -0.413377 -0.595142 0.019162 -0.402452 -0.231815 0.286520 -0.263377 -0.467602 0.295142 0.252806 -0.234440 0.986077 -0.185697 0.024878 -0.759014 0.383287 0.111128 0.107497 -0.397774 0.343949 0.408724 -0.621167 -1.185722 -0.142526 -0.060106 -0.145720 0.164457 0.299207 0.823717 -0.089719 0.657384 0.412170 0.403914 0.216727 0.400606 0.203620 -0.367796 0.532129 -0.006984
428 -0.331991 -0.070580 0.103118 -0.139232 0.140133 0.493677 -0.055758 -0.116390 0.699910 -0.818063 -0.915638 1.266516 -0.124889 0.816830 0.436563 -0.652640 -0.936410 0.075323 0.131258 0.451041 0.140161 0.998995 0.525159 0.060708 0.525544 -0.530406 -0.398370 0.068047 0.239172 -0.098974 -0.011518 -0.695846 0.004826 -1.093601 -0.018849 0.454263 -0.149695 0.173169 -0.537906 0.229778 0.829790 0.584584 0.780738 -0.827831 -0.119200 -0.373140 0.243390 -0.646081 -0.026647 0.371241
139 -0.171882 -0.538517 0.279170 -0.315997 0.211908 0.210209 0.187867 -0.734713 1.050223 -1.060049 -0.877874 0.772897 -0.543998 0.867243 0.972772 -0.341393 -0.781280 0.120952 1.069757 -0.045709 -0.210813 0.210336 0.111292 -0.239014 1.140887 -0.705511 0.573557 -0.538550 -1.018633 0.365546 -0.589788 -0.331959 0.020876 -1.401357 -0.501141 1.397074 -0.183673 -0.443758 -1.075268 0.295209 0.288457 0.676919 0.193823 0.499221 0.595141 -0.285039 0.183001 -0.221058 -0.053619 -0.157957
158 0.216394 0.554845 0.731189 0.107808 -0.265693 -0.456059 0.165252 -0.507979 0.452089 -0.253785 -0.488495 -0.339661 -0.633779 0.150868 -0.363153 -0.402891 0.309925 -0.077505 -0.281721 0.461613 0.090449 -0.365792 0.976593 -0.050457 -0.128873 -0.562624 0.329329 -0.000577 0.319288 -0.280438 0.281361 0.057196 -0.507209 -0.970137 -0.185632 -0.024931 -0.224594 0.153262 -0.026407 0.877740 -0.007003 0.611837 0.446339 0.448835 0.167055 0.287972 0.200628 -0.374257 0.329740 0.069442
356 -0.201826 -0.575857 0.345529 -0.360798 0.228121 0.195221 0.177790 -0.706023 1.060189 -0.966124 -0.864780 0.668042 -0.584697 0.903834 0.904092 -0.349582 -0.745045 0.139702 1.132940 -0.029867 -0.272740 0.194117 0.058093 -0.212279 1.170438 -0.731386 0.470400 -0.634297 -1.091258 0.319736 -0.511428 -0.250189 0.116310 -1.322793 -0.457229 1.343453 -0.234522 -0.421775 -1.109181 0.351575 0.304135 0.681233 0.147308 0.503061 0.628214 -0.358766 0.140000 -0.270340 -0.040992 -0.109145
194 0.167654 0.673571 1.083797 -0.113274 -0.220578 -0.455063 -0.237258 -0.440114 0.245995 -0.437022 -0.487401 -0.456114 -0.564479 -0.011199 0.008088 -0.301653 0.000724 -0.067318 -0.326574 0.115598 -0.387396 -0.332332 0.878702 -0.272114 0.413574 -0.254524 0.564656 0.153651 0.245315 -0.350143 0.404898 0.639103 -0.337001 -1.343756 0.035399 0.068955 -0.059618 0.191431 0.213011 0.961332 -0.164632 0.666453 0.237151 0.236549 0.090868 0.664832 0.305222 -0.501436 0.651164 -0.000596
233 0.166526 0.539893 0.715624 0.095579 -0.208111 -0.489930 0.215781 -0.575447 0.498519 -0.133703 -0.426896 -0.296164 -0.617613 0.161530 -0.440492 -0.522060 0.320987 -0.041928 -0.249827 0.468804 0.093152 -0.359337 0.957137 0.114617 -0.171818 -0.510759 0.256101 -0.030152 0.272312 -0.224306 0.301293 -0.120760 -0.530781 -0.865847 -0.266050 -0.022472 -0.332130 0.219581 -0.086155 0.932926 -0.019448 0.673377 0.456427 0.442474 0.165681 0.122960 0.175655 -0.342690 0.436846 0.028154
155 0.107089 0.491448 0.548851 0.381147 -0.471289 -0.416235 0.099549 -0.378144 0.737910 0.149389 -0.277152 -0.173108 -0.539674 0.154285 -0.455451 -0.667221 0.178506 0.401607 -0.301848 0.727167 0.016065 -0.329512 0.940501 -0.050228 0.116352 -0.421764 0.431175 0.070079 0.531549 0.023005 0.271236 -0.193867 -0.782340 -0.625833 -0.002015 0.105705 0.013051 0.127757 -0.232428 0.764362 0.118707 0.545774 0.619794 0.816362 -0.131340 -0.094661 0.242917 -0.085559 0.185182 0.098783
147 0.028808 0.727008 0.754889 0.025628 -0.276706 -0.304719 0.142416 -0.551464 0.382610 -0.244647 -0.418303 -0.429923 -0.600838 0.063900 -0.251611 -0.418161 0.162532 -0.076084 -0.345672 0.312734 0.027236 -0.368285 0.941601 -0.018376 0.053876 -0.467982 0.419478 -0.023105 0.317652 -0.136360 0.322872 0.122799 -0.439953 -1.123657 -0.068360 0.071263 -0.097107 0.152395 0.030034 0.906648 -0.033156 0.519350 0.317243 0.287058 0.106778 0.510722 0.249453 -0.324965 0.470784 0.125066
197 -0.105578 1.553626 0.924374 0.407161 -0.229517 -0.224153 0.041991 -0.069995 0.937077 0.310443 -0.060657 0.185913 -0.314212 0.307471 -0.341430 -0.790756 0.487546 -0.099313 -0.274677 -0.106279 0.534947 0.207375 0.351571 -0.296784 0.715222 -0.344067 0.147570 0.400988 0.337193 -0.011967 0.513125 0.168306 -0.620928 -1.128365 0.209378 0.190886 -0.340655 0.103214 -0.252050 0.636214 -0.020131 0.382641 -0.025382 0.421062 -0.241030 0.391078 0.226210 0.361552 0.323714 0.430047
236 0.278646 0.553855 0.821431 0.244193 -0.185124 -0.277407 0.081209 -0.527529 0.252570 -0.416772 -0.535248 -0.254680 -0.534604 0.110241 -0.199771 -0.221305 0.258650 -0.199819 -0.349350 0.262011 0.004579 -0.274422 1.168356 -0.070402 -0.130835 -0.578318 0.340454 0.153116 0.337874 -0.373406 0.499663 0.391549 -0.725516 -1.130079 -0.258492 0.134776 -0.308228 0.287483 0.120062 1.056890 -0.130445 0.615174 0.424533 0.319452 0.028738 0.369161 0.218166 -0.351798 0.276452 0.166001
201 -0.316232 0.029054 -0.008858 -0.390711 0.314947 0.339479 -0.046202 -0.481736 0.821466 -0.869084 -1.231259 1.495575 -0.178162 0.344227 0.221478 -0.528016 -1.006398 0.054468 0.193074 0.467556 -0.098014 0.819439 0.126032 0.110750 0.202800 -0.670266 -0.223209 0.236620 0.086887 0.080486 -0.234252 -0.836233 -0.496611 -1.004212 0.032010 0.584130 -0.295580 0.394610 -0.608387 0.134449 0.577204 0.465585 0.605620 -0.611181 -0.309162 -0.415540 0.536129 -0.494997 0.211679 -0.252116
316 0.154368 0.582990 0.705738 0.047033 -0.169928 -0.448798 0.223082 -0.491018 0.437835 -0.198748 -0.522021 -0.269099 -0.664820 0.169168 -0.445967 -0.548290 0.450980 -0.116685 -0.268100 0.507798 0.075976 -0.391728 0.959837 0.085302 -0.179067 -0.550228 0.267295 -0.099017 0.203727 -0.267916 0.252232 -0.071458 -0.459511 -0.937522 -0.257783 -0.084940 -0.408830 0.275229 -0.123217 0.940696 -0.005593 0.722999 0.400926 0.385023 0.267271 0.061236 0.049473 -0.373333 0.513626 0.039217
501 -0.526498 -0.139898 0.405801 -0.212556 -0.478128 0.424210 -0.504845 0.013349 0.565089 -0.581367 -0.551833 1.485986 -0.373740 0.713609 0.992023 -0.401593 -0.751022 0.012669 -0.125755 0.012928 0.196763 1.328372 1.014574 0.378682 0.407611 -0.205833 -0.245846 0.562294 0.281456 -0.363873 -0.098986 -0.242730 0.068769 -1.465577 -0.167582 0.333899 0.412164 0.101134 -0.188549 0.248618 0.472478 0.337294 0.915365 -0.365539 0.063194 -0.629709 -0.194156 -0.642090 -0.127033 0.016436
127 0.079939 0.644389 0.966874 0.047119 -0.185346 -0.333355 -0.010739 -0.537851 0.263137 -0.347196 -0.422950 -0.448442 -0.619764 0.057015 -0.080978 -0.295161 0.146201 -0.119093 -0.257108 0.199694 -0.314192 -0.299702 0.974884 -0.173299 0.293200 -0.312589 0.519729 0.044704 0.182905 -0.346917 0.459875 0.505176 -0.410286 -1.188502 -0.086084 0.123010 -0.086993 0.190277 0.093371 1.002946 -0.085528 0.676177 0.340057 0.220102 0.037880 0.470489 0.308039 -0.444192 0.478316 0.148190
467 -0.435024 -0.013666 0.134075 -0.173394 0.217238 0.524876 0.077752 -0.232191 0.644711 -0.896310 -0.892489 1.141099 -0.175015 0.818395 0.484601 -0.812864 -0.826431 0.091626 0.304994 0.362845 0.098711 0.887254 0.406761 0.153802 0.595113 -0.507663 -0.481514 -0.060415 0.071420 -0.162143 0.065982 -0.724310 0.086127 -1.147670 0.131959 0.475047 -0.229970 0.070514 -0.654804 0.244000 0.812663 0.691849 0.781855 -0.853150 -0.136369 -0.429562 0.301984 -0.720277 0.128203 0.349037
518 -0.905480 0.679277 0.238573 1.060599 0.886760 -0.975569 0.646953 -0.627556 -0.527317 0.005858 -0.921123 1.143856 0.715253 -0.177099 -0.062900 -0.079992 -0.471037 -0.441338 -0.311885 -0.007482 -0.494569 -0.549219 0.453292 -0.295549 0.391987 0.036576 0.038680 0.767345 0.429048 -0.093533 -0.104978 0.501223 0.148711 -1.197404 -0.712170 0.021654 0.544354 -0.911516 -0.589083 0.041849 0.456505 0.119827 0.021015 0.762910 0.182086 -0.356678 0.011502 -1.348618 -0.134722 0.041143
5974 0.008262 0.031601 0.159569 0.309850 -0.104422 -0.041624 0.207872 0.005263 -0.133128 -0.447693 0.139584 0.261346 -0.075004 0.337121 -0.401285 -0.357504 -0.059661 -0.080092 0.146988 0.646566 0.276217 -0.087984 -0.133404 0.537639 0.569430 0.012772 -0.017838 0.406742 -0.409202 0.315420 0.407759 0.447074 0.076991 -0.087157 -0.187448 0.392393 0.267531 -0.051485 -0.543252 0.225976 0.198587 -0.735598 0.219352 -0.122551 -0.129549 0.698352 -0.234258 -0.292103 0.389287 -0.446380
548 -0.948459 0.823894 -0.053802 0.833263 1.068543 -0.938098 0.943991 -0.617782 -0.032177 0.143396 -0.741790 1.255530 0.753524 -0.493457 -0.535827 0.273320 -0.643001 -0.347078 -0.168993 -0.002844 -0.457188 -0.696882 0.534931 -0.577372 0.541390 -0.119557 0.038921 0.588054 0.622674 0.739376 0.330316 0.793904 -0.339445 -1.295522 -0.332885 0.139100 0.749223 -1.066570 -0.461391 -0.800242 0.496236 -0.213160 0.340575 0.400605 0.125775 -0.280239 0.534508 -1.453391 0.270658 0.018657
320 -0.234106 0.701067 0.676681 0.912057 -0.751663 0.034314 1.322461 -0.816990 -0.237036 -0.027541 -0.545758 -0.186760 0.347103 0.162266 -0.306253 0.089362 -0.341485 0.433482 0.342704 -0.866819 0.171389 0.486649 0.765864 0.116086 0.372820 -1.109648 -0.000394 0.678636 0.810949 -0.116772 -0.613317 -0.499436 0.755852 -0.615045 0.161652 0.811276 -0.396696 0.729706 -0.772657 -0.513674 -0.414092 -0.263839 1.186940 -0.287064 0.089370 0.438437 -0.335759 0.006701 0.702126 -0.439075
2041 -0.016169 0.013529 0.121702 0.240126 -0.046458 -0.034998 0.276433 -0.015076 -0.135127 -0.468315 0.159325 0.250454 -0.103919 0.325355 -0.418315 -0.370765 -0.028121 -0.084204 0.158539 0.653194 0.294081 -0.082225 -0.138523 0.545842 0.558332 -0.019322 -0.018601 0.424120 -0.366942 0.268666 0.388613 0.402657 0.040650 -0.070693 -0.173486 0.405631 0.232141 -0.071097 -0.523327 0.186708 0.206470 -0.744749 0.187294 -0.168499 -0.160754 0.743070 -0.224584 -0.307130 0.372868 -0.474456
119 -0.201337 -0.474175 0.174338 -0.445843 0.062100 0.030541 0.023448 -0.607569 0.655393 -1.023142 -0.877110 0.923713 -0.360398 0.713084 0.686652 -0.122479 -0.677223 0.107932 0.562989 -0.084496 -0.090029 0.334706 0.176714 -0.028768 1.064421 -0.694615 0.550552 -0.243202 -0.680867 0.299637 -0.478006 -0.757836 -0.296902 -1.280924 -0.308740 1.182259 -0.165708 -0.285049 -1.018656 0.113226 0.383931 0.575952 0.031995 0.387123 0.431472 -0.272031 0.212168 -0.071215 0.112085 -0.391897
421 -0.146353 0.659661 0.577245 1.096235 -0.735001 -0.025083 1.286982 -0.772057 -0.256358 0.036287 -0.419087 -0.208935 0.231393 0.167316 -0.175002 0.163660 -0.287644 0.428363 0.445409 -0.968429 0.175472 0.507012 0.827250 0.079534 0.479282 -1.175487 0.093712 0.596636 0.764745 -0.071626 -0.580697 -0.496864 0.673268 -0.554096 0.204480 0.924194 -0.270359 0.715793 -0.907319 -0.528868 -0.420146 -0.220149 1.101607 -0.290100 0.132046 0.505637 -0.330053 -0.115851 0.847336 -0.407820
859 0.012506 0.011818 0.143591 0.273341 -0.073334 -0.014470 0.238801 0.017836 -0.163560 -0.440518 0.129531 0.283056 -0.110524 0.317180 -0.407288 -0.386429 -0.067628 -0.074641 0.131990 0.647312 0.244433 -0.042516 -0.109727 0.562732 0.567840 0.024360 -0.031398 0.429208 -0.349505 0.314533 0.414399 0.419633 0.068555 -0.105625 -0.173294 0.400110 0.240409 -0.120895 -0.517189 0.178722 0.183663 -0.748323 0.199957 -0.137117 -0.185561 0.724407 -0.261180 -0.289520 0.349988 -0.479373
496 -0.201400 0.097389 0.205943 -0.196427 0.365764 0.452935 0.063390 -0.179587 0.775708 -0.782728 -1.162505 1.449442 -0.228863 0.453755 0.348343 -0.775173 -0.775166 0.085934 0.270091 0.541686 -0.014807 0.703787 0.219850 -0.044991 0.369236 -0.501392 -0.306812 0.009442 0.173221 -0.056394 -0.158936 -0.743932 -0.171542 -0.862752 0.108578 0.439637 -0.309882 0.316810 -0.506562 0.147197 0.748679 0.553864 0.800837 -0.686588 -0.253304 -0.364941 0.389345 -0.528603 -0.013056 -0.036453
111 -0.195968 0.684435 0.636109 1.036390 -0.727745 0.082137 1.234781 -0.749163 -0.242032 -0.019825 -0.445368 -0.187234 0.331408 0.148698 -0.263030 0.059583 -0.449976 0.260573 0.399707 -0.891354 0.271899 0.465984 0.822729 0.066560 0.413986 -1.221424 -0.015030 0.618982 0.917117 0.014287 -0.480396 -0.563960 0.747402 -0.673209 0.245086 0.900567 -0.364633 0.690375 -0.701106 -0.568907 -0.476338 -0.285497 1.174114 -0.366565 0.080901 0.565648 -0.260766 -0.005449 0.700119 -0.340505
258 -0.435721 -0.451572 -0.443525 0.150824 0.539368 0.117330 0.794826 -0.070287 0.102660 -0.276729 -0.227004 -0.077468 -0.085413 -0.096920 -0.775352 -0.527916 -0.406919 -0.133909 -0.081167 -0.425803 0.944910 0.030387 0.251370 0.043751 0.545147 -0.317860 0.491111 0.598329 -0.172582 -1.542320 -0.183333 -0.125887 -0.658798 -0.541766 -0.258308 -0.054231 -0.028376 0.741276 0.053677 -0.442973 -0.019332 0.356377 0.330759 0.501123 -0.397837 -0.066257 -0.435953 0.163085 -0.017464 0.823838
248 0.740227 0.460963 1.529050 -0.190592 0.176007 0.419727 0.931834 -0.381671 0.789202 -0.248611 -0.676037 -0.189713 -0.221562 -0.367937 -0.693483 -1.445441 0.426678 1.393763 0.439513 -0.937183 -0.245879 0.155966 0.952038 0.028848 0.417499 0.664840 0.990514 0.427483 0.433911 -0.129028 0.761315 0.250722 -1.132438 -0.513395 0.053079 0.021723 0.393977 -0.135418 -0.429669 0.217125 0.753504 0.967198 0.529639 0.349970 -0.469008 0.324954 0.095502 -0.414298 1.191348 0.592562
516 -0.953143 0.636362 0.495223 1.071990 0.691570 -0.911426 0.518926 -0.502530 -0.747930 0.063191 -0.995712 1.102728 0.717193 0.000390 0.078076 -0.388522 -0.511327 -0.450519 -0.486795 -0.030443 -0.684480 -0.646427 0.519518 -0.205951 0.331382 0.064293 0.037321 0.810523 0.427599 -0.223845 -0.281493 0.258034 0.286022 -1.141489 -0.655006 -0.114547 0.513356 -0.923525 -0.692771 0.420919 0.387303 0.264681 -0.130109 0.775759 0.115579 -0.295131 -0.254808 -1.025514 -0.165546 0.029075
108 -0.211757 1.066448 0.830268 0.756677 -0.764744 0.062370 1.105331 -1.078873 -0.345640 0.023574 -0.714378 0.065683 0.328369 0.256283 -0.205262 0.095935 -0.338178 0.557757 0.362153 -0.745517 -0.141192 0.296165 0.531528 -0.238465 0.458303 -0.956248 -0.011843 0.854830 0.641944 -0.318076 -0.770878 -0.316586 0.911768 -0.789199 0.442026 0.672344 -0.269570 1.064300 -0.634488 -0.400359 -0.274722 -0.286383 1.193101 -0.142931 0.098347 0.280539 -0.290871 0.280257 0.445362 -0.939461
297 0.441468 0.683897 0.994799 -0.221931 0.005559 -0.365658 -0.014288 -0.414367 0.329607 -0.524478 -0.574386 -0.356684 -0.503798 -0.047609 -0.260021 -0.186245 0.067553 -0.295065 -0.514353 0.156810 -0.266274 -0.177408 0.710541 -0.288740 0.374658 -0.543419 0.523101 0.274909 0.304179 -0.408192 0.443857 0.423730 -0.618266 -1.322635 -0.053331 -0.096308 -0.162229 0.228848 0.306496 0.974036 -0.285704 0.529605 0.314410 0.288187 0.103729 0.300494 0.323746 -0.314831 0.694837 -0.103866
107 -0.411433 -0.480024 -0.526611 0.101429 0.315740 0.454071 0.308346 0.067253 0.208954 -0.341880 0.013178 0.304469 0.004728 -0.231618 -0.629804 -0.558765 -0.797570 -0.040354 -0.155171 -0.456441 0.733126 -0.645132 0.395472 -0.346904 0.479625 -0.160729 0.472552 0.626181 0.182281 -0.841890 -0.354059 -0.062286 -0.615059 -0.694371 -0.366856 -0.073407 -0.404396 0.386205 -0.285402 -0.408638 -0.242115 0.582750 0.291235 0.358285 -0.207495 0.334521 -0.574851 -0.006236 -0.037772 0.439055
5861 -0.041417 -0.331863 0.545117 0.131504 -0.471398 -0.213127 0.222124 -0.032867 0.032502 0.174351 -0.265481 0.496455 -0.255578 0.448428 -0.249833 -0.153220 -0.178940 0.092783 0.394013 0.707060 0.428189 -0.374186 -0.026287 0.491755 0.435006 -0.298895 0.227475 0.429187 -0.339360 0.432315 -0.100602 0.451355 -1.036280 0.097640 -0.290403 -0.491364 0.571381 0.150993 -0.382200 -0.537670 -0.168419 -0.314667 0.121919 -0.132032 0.040346 0.597903 -0.417544 -0.191586 -0.141694 -1.017449
460 -0.806447 0.723302 -0.006518 0.939070 1.139511 -0.827408 0.905730 -0.519115 0.060434 0.153311 -0.900393 1.273617 0.733380 -0.469282 -0.698184 0.325881 -0.624446 -0.328750 -0.175483 0.069896 -0.429289 -0.740619 0.514344 -0.729434 0.454549 -0.157863 -0.066009 0.575519 0.611538 0.657854 0.431207 0.713874 -0.213554 -1.299984 -0.383792 0.226397 0.728751 -1.026218 -0.477932 -0.865203 0.480936 -0.272776 0.289390 0.462145 0.237609 -0.283394 0.490372 -1.392283 0.316054 0.048605
507 -0.582283 0.500493 0.485916 0.260331 1.278207 -1.203220 1.470151 -0.613698 -0.075238 0.350022 -1.187731 0.572146 0.713165 0.266308 -0.434225 -0.327114 -0.615310 -0.760691 0.086321 0.306460 -0.347743 -0.865574 0.559466 0.017976 0.015960 -0.260730 0.233629 0.370468 0.352355 0.190901 -0.447202 0.053609 0.362307 -1.151815 -0.217220 -0.678093 0.322505 -0.845733 -0.585216 -0.324809 0.686023 0.018323 0.227974 0.595796 -0.357875 -0.516413 -0.081425 -0.992895 -0.000552 0.263412
324 -1.399190 0.543368 0.361415 1.212005 0.700291 -0.489933 0.585465 -0.636343 -0.640776 0.464039 -0.622180 1.091765 0.618232 -0.385039 -0.193559 -0.950660 0.019815 -0.069865 -0.539273 -0.154620 -0.644464 -0.296636 0.687951 0.039476 0.267803 -0.782753 -0.065394 0.199308 0.386943 -0.420718 -0.427802 0.589490 0.555210 -0.993795 -0.663561 0.558461 1.079776 -0.605359 -0.215031 -0.137061 0.042018 0.195859 -0.392027 0.325049 0.365902 -0.432398 0.342855 -1.751415 -0.273068 -0.143788
54 -0.131475 0.351607 -0.691384 0.633325 0.501428 0.015521 1.019718 -0.050676 1.342530 -0.184342 -1.245588 0.099217 -0.322495 2.466004 0.087318 -0.474337 -0.785924 0.032243 -0.616169 -0.828412 -0.202573 0.085100 1.564321 1.093167 0.585816 -0.474194 0.037926 0.833673 0.033829 -0.208841 0.601594 -0.059266 0.536508 0.274622 -0.337674 -0.268802 0.144859 0.191656 0.391847 -0.281110 -0.404511 -0.196678 -0.610214 0.917423 -0.532852 0.345759 0.828711 -0.264028 0.581861 -0.854222
34 0.345497 0.034239 0.565668 1.069800 -0.351774 -0.175105 -0.002897 0.405442 1.037074 0.601228 -0.460007 -0.382271 -0.517084 0.054623 -0.686984 -0.432869 0.193395 0.505845 -0.462051 0.256382 -1.123118 -0.580663 0.726437 -0.412336 0.584777 -0.873509 -0.100661 0.279339 -0.079514 0.023656 0.902344 0.055437 -0.540028 -0.906248 0.397414 0.072299 0.137522 0.503167 -0.451058 0.248271 0.083525 0.411799 0.399211 -0.240082 0.516998 -0.247133 0.574125 -0.731787 0.814222 0.546039
332 -0.269678 -0.418379 0.119568 -0.518845 -0.091017 0.238403 -0.123226 -0.188341 0.805295 -0.817606 -0.867260 1.261013 -0.064741 0.686594 0.544392 -0.278635 -0.902164 0.262966 0.070459 0.218676 0.160761 0.924390 0.400024 0.258454 0.467310 -0.523074 0.005194 0.402741 0.180675 -0.026391 -0.157612 -0.374659 -0.339404 -1.159625 0.323927 0.360973 0.262529 0.151357 -0.423900 -0.023386 0.827445 0.449979 0.967386 -0.322870 -0.055836 -0.666726 0.406557 -0.869115 0.151106 -0.005820
293 0.017427 0.094794 -0.665787 0.696886 0.422028 0.269702 1.139321 0.026727 1.553075 -0.089850 -1.137551 0.101051 -0.358628 2.184499 0.127455 -0.459911 -0.760423 0.095571 -0.502992 -0.906321 -0.147179 0.034208 1.604984 1.068051 0.568116 -0.547227 0.155796 0.848045 0.146769 -0.043934 0.672381 0.198905 0.397225 0.261100 -0.516048 -0.255266 0.228365 0.145218 0.497827 -0.388302 -0.474554 -0.208076 -0.514747 0.970838 -0.447285 0.286560 0.915253 -0.515805 0.572822 -0.787786
301 -0.443032 -0.210689 0.063600 -0.533387 0.250360 0.274486 -0.193468 -0.601026 0.764773 -0.978198 -0.973907 1.271633 -0.090795 0.636313 0.395597 -0.321319 -1.063521 -0.031969 0.070300 0.238579 -0.126819 0.586361 0.213052 0.044945 0.288524 -0.616039 0.082078 0.456106 -0.046130 0.141844 -0.217747 -0.784445 -0.496722 -1.096935 0.095333 0.532368 -0.156895 0.211591 -0.493778 0.132349 0.605927 0.421421 0.702839 -0.314029 -0.163120 -0.477997 0.484932 -0.304783 0.156951 -0.355007
1184 -0.213808 -1.133699 0.139570 0.410132 0.194258 -0.695548 0.236634 0.249403 0.075651 0.494043 -0.581063 0.277137 0.228608 0.451996 -0.128080 -0.317445 0.239566 0.002637 -0.184604 0.066347 0.313612 0.200473 -0.243196 0.254356 0.621903 -0.214824 0.269861 0.360119 0.020540 0.170391 0.316257 0.551142 -0.020935 -0.269870 -0.104583 0.057445 -0.042889 0.057027 -0.189428 0.471314 0.467428 0.154209 0.198941 -0.431060 0.070567 0.658562 -0.155589 0.380040 0.231355 -0.975121
259 0.313458 0.239404 0.917382 -0.144287 0.065604 -0.953305 0.393839 0.247153 0.589030 -0.454988 -0.335677 -0.274839 -0.212607 0.128019 0.231450 -0.101714 0.319756 -0.438452 -0.138565 0.586555 -0.466424 0.385358 0.820191 -0.253090 0.538603 0.049900 0.760979 0.813351 1.277324 -0.271418 -0.024450 0.169370 -1.157531 -0.856681 0.257606 -0.181308 -0.819841 0.584863 -0.219736 0.801238 -0.435231 0.165764 -0.381449 0.322362 0.590399 -0.281212 0.318215 -0.810971 1.489567 -0.121336
616 -0.272279 0.296249 -0.642766 0.758288 0.354884 0.192072 1.067755 -0.062692 1.450089 -0.213821 -1.431346 0.115827 -0.249529 2.333613 0.123029 -0.545338 -0.800752 0.175941 -0.376880 -0.858042 -0.006376 -0.090582 1.472570 1.149282 0.544231 -0.412972 -0.030256 0.590592 0.021201 -0.211231 0.470319 0.127313 0.573196 0.348839 -0.423698 -0.208741 0.132619 0.239934 0.361630 -0.163034 -0.427181 -0.160131 -0.655343 0.764290 -0.497732 0.520242 0.781941 -0.525836 0.535772 -0.621341
189 0.191472 0.296793 0.300168 0.463576 -0.602409 -0.389543 0.140163 -0.442684 0.698956 0.114932 -0.234695 0.057720 -0.138084 0.199032 -0.725250 -0.487664 0.502543 -0.019245 -0.642050 0.383261 -0.325127 -0.496639 0.964361 -0.123121 0.311564 -0.650186 0.591930 0.427162 -0.175448 0.118900 0.334813 -0.735401 -0.713723 -0.488937 0.035140 -0.022623 -0.512269 -0.075109 -0.485626 0.859689 -0.041886 0.591193 0.373982 0.745625 0.848411 0.066069 0.230356 -0.341998 0.908855 0.073600
265 -0.794550 0.577633 0.508237 1.226910 0.740142 -0.697368 0.375758 -0.601322 -0.788839 0.209901 -0.814431 1.306956 0.856720 0.072136 0.089205 -0.653762 -0.211903 -0.442751 -0.634734 -0.114546 -0.747593 -0.486751 0.732220 -0.218404 0.294072 0.056722 0.190387 0.847468 0.207064 -0.321428 -0.648077 0.054488 0.480617 -1.029280 -0.693897 -0.104896 0.774496 -0.821273 -0.641494 0.514310 0.333983 0.254578 -0.208295 0.737393 0.213849 -0.258837 -0.118841 -0.840125 -0.080729 -0.161003
246 -0.967451 0.682337 0.383996 1.284564 0.980901 -0.629653 0.190766 -0.557553 -0.745291 0.374012 -0.870800 1.505533 1.106978 -0.136150 0.334967 -0.822124 0.044697 -0.513948 -0.390706 -0.272377 -0.434482 -0.328162 0.651707 -0.185553 0.411449 -0.744557 0.855157 0.625532 -0.042480 -0.191258 -0.891982 -0.103935 0.000208 -0.788370 -0.955754 -0.001406 0.845905 0.143377 -0.452667 0.499543 0.139059 -0.250286 -0.641988 0.772342 0.568583 -0.222915 0.178711 -0.382538 0.052319 0.130202
380 0.118023 0.677555 0.281017 -1.200736 0.058526 0.533277 -0.006400 0.227833 -0.361196 -0.435845 -1.873213 1.325757 0.492011 0.457827 0.809025 -0.183442 -0.772196 0.755003 0.073407 0.837460 -0.247559 -0.035520 -0.056581 1.226762 0.695151 -0.565798 0.126969 -0.037917 0.065209 -0.006816 -0.502075 -0.144297 -1.135338 -2.234848 0.620468 1.348734 0.263917 1.078316 -0.147862 -0.017967 0.773321 0.006368 -0.876521 -0.042793 0.344167 -0.435198 -0.371879 -0.355179 -0.352713 -0.491631
519 0.107845 -0.140169 -0.396617 0.135384 0.159064 0.075235 0.595669 -0.009608 0.242307 0.421645 0.983939 0.698931 -0.086946 0.070297 -0.105141 -0.418046 -0.754979 -0.817888 0.050976 0.075053 -0.185729 -0.349745 0.402802 0.126762 0.354623 -0.424881 0.434592 -0.088523 0.155248 -1.471717 -0.389875 0.234019 -0.162577 -0.825346 -0.122207 0.507477 -0.216496 0.940666 0.101792 -0.693078 0.215692 0.931366 -0.049310 0.645419 -0.603908 0.395290 -0.223521 -0.319809 0.471633 -0.299819
183 0.189980 0.235163 1.044534 -0.175294 -0.161724 -0.815505 0.582928 0.379680 0.553189 -0.273244 -0.253718 -0.025667 -0.155858 0.060100 0.244946 -0.165685 0.317112 -0.488379 -0.004004 0.671322 -0.445655 0.419089 0.815230 -0.228503 0.379624 -0.188290 0.869746 0.678473 1.206795 -0.082224 0.003480 0.426933 -1.167889 -0.752101 0.126188 0.021486 -0.888682 0.805450 -0.224544 0.716207 -0.341049 0.276947 -0.525528 0.429836 0.646913 -0.330784 0.299776 -0.877323 1.342898 0.041508
397 -0.596047 0.526479 1.040291 -0.080240 0.785636 -1.127145 1.023365 -0.426220 0.173119 0.501977 -0.902280 1.132589 0.639843 -0.096712 -0.437803 -0.387475 -0.426291 -0.820160 -0.109067 -0.013023 -0.135074 -0.750403 0.608353 0.296956 0.448180 -0.575837 0.602759 0.108494 0.493769 0.341825 -0.460847 0.396473 0.444247 -1.404505 -0.496467 -0.235282 0.743472 -0.667032 -0.166441 -0.770335 0.428191 -0.298735 -0.142816 0.480982 -0.338009 -0.714993 -0.258327 -0.759282 0.327015 0.705844
414 0.132758 -0.168029 -0.351155 0.119219 0.189872 0.067409 0.591940 -0.017489 0.227818 0.430246 0.929703 0.709134 -0.057597 0.057520 -0.109070 -0.382933 -0.746144 -0.827375 0.056050 0.047864 -0.203278 -0.355847 0.404653 0.103848 0.379423 -0.419921 0.444550 -0.129213 0.143334 -1.466368 -0.433405 0.238645 -0.169501 -0.856815 -0.123503 0.504393 -0.229597 0.947998 0.113129 -0.709808 0.218061 0.865805 -0.030117 0.633138 -0.594878 0.417705 -0.203982 -0.328255 0.485152 -0.285103
191 -0.192482 0.914472 0.978477 0.093968 -0.319683 -0.380086 -0.408989 -0.371746 0.194075 -0.125725 -0.339217 -0.473667 -0.344268 -0.014420 0.040726 -0.552927 -0.228752 0.060653 -0.332421 0.044099 -0.494007 -0.449927 0.962538 -0.316805 0.744294 -0.163649 0.703130 0.158940 0.138186 -0.282198 0.509176 0.441784 -0.365351 -1.098411 0.336867 0.025653 -0.005342 0.291835 0.122614 0.859915 0.124872 0.655149 0.110876 0.030320 0.061130 0.862891 0.540366 -0.319399 0.709114 0.030159
279 0.122310 -0.143149 -0.319582 0.090377 0.128770 0.057472 0.664119 -0.028285 0.180670 0.438583 0.998972 0.724633 -0.038684 0.082986 -0.090926 -0.388850 -0.787798 -0.793392 0.032174 0.067653 -0.234434 -0.379036 0.405599 0.113276 0.344082 -0.401369 0.483066 -0.070264 0.124121 -1.423662 -0.384855 0.234179 -0.157935 -0.786164 -0.139885 0.504150 -0.224603 0.995021 0.109089 -0.711576 0.296284 0.945663 -0.004371 0.643053 -0.579705 0.414994 -0.221324 -0.345112 0.506617 -0.250707
673 -1.016212 0.688330 1.327551 0.730233 -0.314153 -1.377062 1.306592 -0.739716 -0.384973 0.378257 -0.535849 1.382225 0.250779 0.555553 -0.080313 -1.275891 -1.239351 -0.626464 0.264819 0.343704 1.364866 -0.814298 -0.316506 -0.422159 -0.475120 -0.405869 0.930510 -0.119952 0.884434 -0.041189 -0.480192 -0.534535 -0.314205 -1.433441 -0.545938 -0.923885 1.004098 -1.259857 0.136225 -0.245243 -0.741899 -0.673420 0.109406 -0.429303 0.911084 0.364145 0.520332 -1.898806 0.681917 0.384391
129 -0.077149 0.755177 0.655016 0.929794 -0.694624 0.108293 1.264553 -0.941409 -0.322120 0.148418 -0.629616 -0.021300 0.247525 0.162975 -0.124982 0.144647 -0.350947 0.346552 0.432404 -0.885652 -0.117751 0.402986 0.679191 0.039412 0.479532 -1.117281 0.049253 0.578531 0.691754 -0.159764 -0.689681 -0.470951 0.687483 -0.655931 0.246532 0.719475 -0.273468 0.849692 -0.772771 -0.460250 -0.404266 -0.318000 1.060588 -0.251828 0.036559 0.413619 -0.336442 -0.073493 0.380080 -0.590292
345 -0.264595 -0.061060 0.086374 -0.662891 -0.090489 0.311770 -0.251141 -0.258339 0.211857 -0.765014 -1.011646 1.383855 -0.045016 0.724976 0.590100 -0.013550 -0.613951 0.254360 -0.048871 0.190961 0.138206 0.654858 0.175903 0.177269 0.630323 -0.725755 0.301321 0.085699 0.071335 -0.012729 -0.336632 -0.744596 -0.868546 -1.410719 0.071709 0.673802 0.220407 0.184745 -0.547925 -0.136417 0.312156 0.041376 0.255058 0.156190 0.298210 -0.348834 0.272240 -0.247753 -0.048838 -0.515962
240 -0.617161 -0.103414 -0.002651 -0.487589 -0.157253 0.107288 0.005588 -0.291634 0.070558 -0.951959 -0.586282 1.053886 -0.643682 0.594617 0.280198 -0.045224 -0.347978 0.217557 -0.286978 0.011420 0.025521 1.207375 0.478320 -0.063049 1.102139 -0.448817 0.387735 0.270594 0.065731 -0.161956 -0.171546 -1.134138 -0.394270 -1.185115 0.262737 0.267274 0.459776 -0.048145 -0.540498 -0.277440 0.545948 0.436395 -0.173981 0.008200 0.316788 -0.206602 0.362525 -0.683142 -0.139644 -0.622367
179 -0.003846 0.211027 -0.621511 0.789704 0.264905 0.342794 0.968750 0.117860 1.414736 -0.373890 -1.389536 0.157375 -0.143868 2.056871 0.326950 -0.612778 -0.666860 0.060010 -0.345393 -0.814098 0.094636 -0.121457 1.549201 0.931574 0.413057 -0.212906 0.052425 0.677718 0.072729 -0.175397 0.390847 0.269129 0.471228 0.364332 -0.494670 -0.323696 0.076365 0.246548 0.448742 0.008489 -0.443804 -0.174447 -0.522455 0.873023 -0.531155 0.424450 0.702953 -0.875329 0.644575 -0.758948
199 -0.131576 0.945190 0.736626 1.154155 -0.699943 0.424515 1.327847 -0.542566 -0.395666 0.102422 -0.197632 -0.156776 0.306919 0.458679 0.297907 -0.031282 -0.073237 0.887351 0.745449 -0.784398 -0.020806 0.235071 0.494121 0.006079 0.458943 -0.696227 0.016173 0.789927 0.816500 -0.084931 -0.707401 -0.061783 0.638468 -0.757356 0.380237 1.101588 -0.168877 0.617048 -1.086657 0.128797 -0.361589 -0.195262 1.160394 0.064588 0.240244 0.026521 -0.437397 -0.320620 0.712534 -0.666729
225 -0.069396 0.735800 0.659033 1.209537 -0.635619 0.345935 1.220989 -0.556392 -0.377214 0.179460 -0.309861 -0.183969 0.303571 0.348107 0.108571 -0.008818 -0.098697 0.883092 0.602437 -0.910842 0.081270 0.278471 0.612357 0.125088 0.555811 -0.910445 0.036187 0.725538 0.774814 -0.068442 -0.669128 -0.256795 0.633051 -0.735707 0.416960 0.981730 -0.089399 0.702471 -1.010908 -0.057567 -0.449771 -0.243518 1.094087 -0.190095 0.235948 0.223744 -0.351768 -0.249597 0.582772 -0.436643
1982 0.395626 -0.010409 -0.503261 0.590285 0.577434 -0.120535 -0.378356 0.525636 0.346479 -0.266933 -0.396101 0.077964 -0.195991 -0.090177 -0.850154 -0.735901 -0.829109 0.251036 0.399519 -0.148786 -0.135437 -0.249923 -0.307242 -0.336932 0.875421 0.016863 0.233241 -0.304595 0.518032 -1.364189 -0.412609 -0.277218 -0.133344 -1.074127 -0.780182 0.029529 -0.246348 0.363292 0.120389 -0.509894 -0.688222 -0.144299 0.411661 0.015278 -0.021057 -0.035235 -0.193346 -0.446616 0.507384 -0.220269
573 -1.309040 1.050656 0.903244 0.796554 -0.174034 -1.079645 1.601628 -1.064048 -0.766103 -0.126029 -0.196198 1.347465 0.499830 0.864298 0.024673 -1.421752 -1.062409 -0.656858 0.659359 0.449287 1.317519 -0.959078 -0.499641 -0.601461 -0.410024 -0.144977 0.787178 -0.229505 0.556607 0.082455 -0.061677 0.009357 -0.216867 -1.255368 -0.639601 -0.519756 0.862661 -1.143322 -0.324706 -0.041870 -0.411193 -0.268696 -0.097432 -0.583232 0.846210 0.216132 0.536821 -2.121087 0.945235 0.539198
375 -0.372879 -0.049969 0.181180 -0.156854 0.205174 0.465887 -0.052561 -0.118938 0.618702 -0.693195 -0.871974 1.294317 -0.245399 0.643994 0.633152 -0.576529 -0.776591 -0.001998 0.157370 0.423462 0.048749 0.901422 0.611527 0.106289 0.558261 -0.526368 -0.286600 0.007248 0.180605 -0.091944 -0.091020 -0.657773 -0.003162 -1.078145 0.006153 0.493396 -0.048171 0.192969 -0.433203 0.199176 0.663178 0.458916 0.716329 -0.760843 -0.164951 -0.433924 0.143164 -0.574458 -0.005473 0.208639
261 0.667244 0.729863 -0.315750 0.759519 -1.414259 0.298091 0.800086 0.222942 0.460695 -1.211846 -0.399657 0.303563 0.705166 0.636407 -0.357217 -1.398767 0.791317 -0.800683 1.012625 -0.221158 -0.525922 -0.984115 0.793840 1.082271 1.131425 -0.886481 0.816316 0.049610 0.825357 -0.270488 -0.277384 -0.048607 0.404306 -1.228451 -1.161987 -1.181345 0.219012 -0.069007 0.288877 -0.560774 1.707365 0.345254 0.799068 -0.629548 0.801094 -1.101183 -0.115025 1.171214 0.186969 -0.961022
150 -0.845248 0.476738 0.581143 0.494833 0.909585 -1.018179 0.997326 -0.661028 -0.485182 0.327836 -1.028536 0.687751 0.603716 0.256050 -0.279293 -0.455891 -0.697368 -0.550636 -0.158013 0.013838 -0.589414 -0.905824 0.554645 0.060472 0.266098 0.067071 0.003931 0.665411 0.244099 0.039424 -0.482694 0.015536 0.435319 -1.129962 -0.389384 -0.282542 0.488888 -0.941342 -0.650061 0.189578 0.442148 0.316771 -0.014535 0.471395 -0.188894 -0.372718 -0.178662 -0.943341 0.062898 0.259521
285 -0.158053 0.851125 0.749035 1.206903 -0.777938 0.359768 1.243380 -0.564428 -0.484491 0.151566 -0.340689 -0.215730 0.243299 0.428074 0.241856 0.026402 -0.122590 0.962119 0.666573 -0.767554 0.071389 0.226916 0.529802 -0.014709 0.483524 -0.744887 -0.031287 0.838314 0.830579 -0.174403 -0.864942 -0.123018 0.632868 -0.809000 0.578167 0.968230 0.003274 0.757819 -0.910240 0.026043 -0.359022 -0.134251 1.100043 0.123277 0.264897 0.135760 -0.449273 -0.377725 0.582799 -0.724524
564 -1.317691 0.896679 0.976526 0.715944 -0.220083 -1.161684 1.635062 -1.062204 -0.778558 -0.140923 -0.265837 1.233502 0.378043 0.842240 -0.011834 -1.362411 -1.101717 -0.646015 0.727191 0.403134 1.244243 -0.961122 -0.435370 -0.576652 -0.396886 -0.216843 0.884482 -0.228260 0.507786 -0.007518 -0.047446 -0.053949 -0.255527 -1.330954 -0.561111 -0.492193 0.859079 -1.285393 -0.307472 -0.119339 -0.464962 -0.192269 -0.110478 -0.489699 0.898076 0.104575 0.480809 -2.135907 0.886903 0.509502
587 -0.866749 0.859794 0.133049 0.758701 1.180440 -0.762601 0.941904 -0.471388 -0.172217 0.122231 -0.786968 1.149604 0.726617 -0.431734 -0.435023 0.080746 -0.531507 -0.484899 -0.259567 0.056557 -0.116450 -0.507214 0.561942 -0.495429 0.405070 -0.178323 -0.137497 0.658017 0.525560 0.389225 0.229309 0.827995 -0.195950 -1.221261 -0.484982 0.204285 0.583485 -1.064025 -0.210520 -0.632245 0.459248 -0.155420 0.153862 0.515330 0.308378 -0.265747 0.294172 -1.424410 0.125348 -0.077078
114 -0.163868 0.000271 1.121881 1.482001 0.397494 -0.007855 0.916564 -0.350571 0.884060 -0.754742 0.697045 0.562132 1.136282 0.113354 -0.793470 0.517878 0.448772 1.328119 0.121844 0.011445 0.267827 -0.946829 1.037975 -0.144666 0.889389 -0.622086 -0.115550 -0.317204 -0.629816 -0.261634 -0.455550 -0.770109 -0.145100 -1.460173 -0.100857 0.528269 -0.671604 -0.491335 0.874048 0.553044 0.430615 0.363656 -0.013113 -1.030506 -1.722077 -0.230953 -0.712570 -0.700893 0.325278 -1.151262
278 -0.533761 0.230453 1.277738 0.290168 1.042404 -0.898991 1.113503 -0.494088 0.286928 0.749352 -0.254818 1.862743 0.335615 -0.743510 -0.061813 -1.081210 0.263667 -0.915624 -0.016705 -0.139834 0.140482 -0.072414 0.800329 0.223840 -0.099301 -0.908165 0.791380 0.273255 1.147663 -0.026577 -0.380881 0.260720 0.756104 -1.419003 -0.847395 0.338123 0.384548 -1.102276 0.685573 -0.910767 0.306753 -0.419491 -0.449391 0.128850 0.275005 -0.114541 -0.405290 -1.169101 0.393437 0.664941
68 -1.157849 0.542770 0.370789 1.253181 0.697008 -0.549148 0.555208 -0.790865 -0.707735 0.402093 -0.729088 1.282017 0.653463 -0.319218 -0.223002 -0.834405 0.157895 -0.271084 -0.530471 -0.203213 -0.549747 -0.142139 0.622040 -0.119834 0.175660 -0.619411 0.094932 0.264117 0.318227 -0.275523 -0.534095 0.425431 0.543289 -1.075804 -0.696259 0.383522 1.013779 -0.732854 -0.194958 -0.008695 0.167795 0.196993 -0.504312 0.492128 0.549723 -0.058916 0.330638 -1.327774 -0.241151 -0.195047
229 -0.569836 -0.300851 0.116071 -0.424107 0.074168 0.262412 -0.221053 -0.402856 0.663753 -0.777785 -0.739061 1.107901 -0.398579 0.682947 0.414558 0.020029 -0.702708 -0.256748 0.040437 0.206800 -0.164197 0.782282 0.461768 0.141283 0.671198 -0.797420 -0.015187 0.397681 -0.163232 -0.188130 -0.121062 -0.625537 -0.073599 -1.118737 -0.062120 0.896313 0.024187 0.133377 -0.203756 0.214205 0.558846 0.462221 0.652996 -0.298750 -0.049579 -0.533097 0.271628 -0.315190 -0.053093 0.050086
722 0.344995 0.617904 -0.288334 0.899470 -1.646562 0.069783 0.704789 0.249682 0.395037 -0.996144 -0.179185 0.311130 0.494211 0.655215 -0.311206 -1.112006 0.733300 -0.853541 1.059591 -0.459064 -0.428314 -0.822126 0.767640 1.126760 1.179145 -0.889794 0.804056 0.094980 0.864266 -0.388054 -0.350954 -0.060257 -0.058135 -1.109012 -0.961347 -1.385512 0.407079 0.049146 0.216310 -0.504995 1.595541 0.389060 0.766224 -0.595814 0.768254 -0.940541 0.099476 0.978503 -0.001517 -0.925323
330 0.338919 0.261510 0.259384 0.740305 -0.327488 1.193902 0.443638 0.058302 -0.690354 0.832176 -0.628856 0.937156 -0.334086 0.664314 -1.440673 0.482584 -0.188217 0.671740 0.167699 1.460951 0.548530 -0.374192 0.696174 0.441252 0.819243 -0.826500 1.198743 0.883459 0.510094 -0.086658 -0.315869 0.695163 1.579536 -1.040020 -0.465895 -0.781838 0.213040 -0.126178 -0.918058 0.007835 -0.950243 1.888894 0.100994 -0.334597 -0.670563 -0.675058 0.691333 0.263062 0.733032 -0.498434
269 -0.310743 1.095076 0.871020 0.874687 -0.908239 -0.049093 1.087118 -0.971665 -0.365397 -0.067165 -0.600591 0.072822 0.181527 0.208154 -0.246062 0.226596 -0.402438 0.548989 0.187005 -0.849415 -0.104994 0.424251 0.578279 -0.224765 0.415759 -0.740954 -0.025120 0.889447 0.676034 -0.353198 -0.734283 -0.268353 0.898769 -0.795176 0.384553 0.592445 -0.177847 1.086375 -0.649364 -0.315972 -0.381174 -0.292003 1.279639 -0.016448 0.010075 0.266178 -0.387729 0.093321 0.403782 -0.921460
177 -0.203625 -0.366592 -0.117821 -0.504166 0.560063 -0.131006 0.751098 -2.163101 1.752279 -0.239136 -0.105478 0.759772 0.647375 -1.092605 0.117972 -0.375949 -0.074262 0.255486 -0.655290 0.721604 0.142445 -0.307821 1.213236 1.022057 2.743886 -0.228358 -0.737052 0.240462 1.062905 -1.231713 0.095763 0.564272 0.246659 -0.270615 0.019031 -0.692043 0.226998 0.371316 -0.959894 0.706916 -1.236511 -0.238460 -0.065697 -0.585223 1.051612 -0.393343 -0.405109 -0.220123 -0.098728 -0.579618
1172 0.006493 -0.013453 0.803262 0.166666 0.183690 -0.202326 -0.302462 0.209086 0.208400 -0.015235 -0.013407 0.324979 -0.343620 0.296445 -0.494332 -0.195405 -0.120187 -0.252580 0.173177 0.401921 0.432783 0.462337 0.012215 0.298122 0.408408 -0.335219 -0.046066 1.032398 -0.392660 0.228646 0.055683 0.424342 -0.176431 -0.022031 -0.452301 -0.279796 0.314367 -0.106537 0.036490 -0.242255 0.020909 -0.248294 0.265887 -0.201330 0.280407 0.456359 -0.984290 -0.104280 0.211550 -0.700970
3622 -0.218237 -1.095783 0.133666 0.367100 0.230760 -0.684717 0.230090 0.231632 0.083108 0.413654 -0.590385 0.260185 0.279156 0.490546 -0.181925 -0.335276 0.292578 -0.020338 -0.193153 0.073354 0.352300 0.189534 -0.243166 0.259622 0.572792 -0.137960 0.296602 0.335786 0.030034 0.221758 0.304645 0.541218 0.027562 -0.258635 -0.123404 0.042517 -0.024798 0.071895 -0.196402 0.467955 0.463879 0.121010 0.201829 -0.428297 0.142573 0.617423 -0.156703 0.409936 0.268559 -1.013357
148 -0.605856 0.233009 1.187272 0.237088 1.045691 -0.836389 1.185620 -0.665509 0.210129 0.722787 -0.007513 1.766446 0.404984 -0.687168 -0.066647 -1.117938 0.332473 -1.012416 0.000153 -0.055847 0.136541 -0.138109 0.803776 0.173421 -0.087428 -1.073276 0.766974 0.180685 0.952311 -0.193820 -0.249658 0.239516 0.790118 -1.323981 -0.850628 0.376496 0.339565 -1.077955 0.663733 -0.949843 0.380342 -0.380305 -0.426270 0.196221 0.226725 -0.188542 -0.311505 -1.158264 0.463247 0.672302
217 -0.510422 -0.135348 0.195904 -0.297415 -0.240080 0.539938 -0.230709 0.006933 0.410875 -0.673190 -0.486932 1.190239 -0.540450 0.709966 0.594734 -0.282496 -0.622069 0.121482 -0.256487 0.025061 0.020473 1.157800 0.830541 0.384216 0.554871 -0.208563 -0.206121 0.500315 0.333344 -0.297563 0.136977 -0.570846 -0.024170 -1.451657 0.175120 0.539004 0.576195 -0.081404 -0.202113 0.060986 0.531600 0.378528 0.317263 -0.521790 0.168600 -0.322836 -0.019846 -0.713726 -0.273835 -0.026048
302 0.071806 -0.043778 0.760590 0.129819 0.160012 -0.243031 -0.286724 0.229322 0.162648 -0.064984 0.016756 0.309843 -0.331570 0.341259 -0.519091 -0.170261 -0.074924 -0.254124 0.159607 0.406779 0.428582 0.515446 -0.045073 0.363217 0.487637 -0.259403 -0.064076 1.128152 -0.414674 0.191424 0.061391 0.373590 -0.149073 -0.098734 -0.451880 -0.259158 0.352767 -0.202257 0.027864 -0.252841 0.006630 -0.262161 0.277071 -0.230649 0.265358 0.445766 -0.941721 -0.121714 0.253416 -0.685363
1749 0.211840 -0.492768 0.055020 -0.078757 -0.004857 -0.072545 0.098170 -0.200771 -0.139967 -0.261515 0.040180 0.288894 0.048007 0.497136 -0.122079 -0.598974 0.569259 0.015811 0.351636 0.542100 -0.310166 0.019577 -0.073686 0.094321 0.230086 -0.510295 0.115632 0.686550 0.132125 -0.172463 0.128259 0.625241 0.047595 -0.364847 -0.025040 0.205955 -0.144897 -0.352485 -0.338832 -0.092457 0.198082 -0.698646 0.154982 0.019686 -0.318644 0.650952 -0.273074 -0.203964 -0.176586 -0.218403
505 0.244927 -0.448905 0.055822 -0.073082 -0.010645 -0.107441 0.034905 -0.173745 -0.161567 -0.271482 0.095419 0.308260 0.093259 0.475239 -0.139940 -0.629659 0.534256 -0.029100 0.322950 0.600500 -0.299823 -0.009600 -0.039561 0.177562 0.240432 -0.519835 0.067301 0.723165 0.174872 -0.147422 0.165733 0.614950 -0.015164 -0.356863 -0.038458 0.237668 -0.119457 -0.308453 -0.292486 -0.043203 0.162709 -0.700576 0.120063 0.003631 -0.281231 0.676816 -0.269287 -0.207986 -0.160111 -0.297478
511 0.290275 -0.496849 0.051780 -0.076056 -0.019639 -0.091468 0.044741 -0.228110 -0.151159 -0.266460 0.058190 0.294097 0.024048 0.426555 -0.151910 -0.626354 0.549718 -0.030415 0.384787 0.613307 -0.312054 0.028396 0.003235 0.166145 0.235646 -0.528485 0.112464 0.694707 0.174613 -0.174029 0.166862 0.564256 0.005143 -0.315876 -0.054205 0.246308 -0.187756 -0.345828 -0.289525 -0.102956 0.157996 -0.707337 0.154174 0.024717 -0.316494 0.684044 -0.270622 -0.232287 -0.162211 -0.279432
247 0.248869 -0.465848 0.044370 -0.028427 -0.030673 -0.080368 0.094672 -0.222661 -0.194874 -0.249593 0.052073 0.303532 0.010772 0.499347 -0.163520 -0.640123 0.544462 -0.065987 0.332773 0.581379 -0.283304 0.031773 -0.042650 0.204637 0.210658 -0.493376 0.077974 0.686796 0.098503 -0.173797 0.157690 0.521383 0.007262 -0.375406 0.001417 0.265501 -0.146933 -0.305445 -0.276959 -0.057084 0.133076 -0.748006 0.146868 0.041639 -0.278807 0.607512 -0.256681 -0.207961 -0.191760 -0.283280
32 -0.239732 0.720709 1.014674 0.190544 -0.385971 -0.126096 0.624447 -0.583713 0.151439 -0.157949 -1.098419 -0.539075 0.277486 0.091333 -0.375248 0.310545 -1.165173 0.198302 0.957606 -0.671257 -0.260397 0.076374 0.328836 -0.625060 0.303463 -0.990096 -0.445248 1.179834 1.121026 -0.034965 -1.029099 0.012578 0.872618 -1.213515 -0.152315 0.713954 -0.702410 0.773591 0.082161 -0.591880 -0.429085 -0.470609 1.380912 -0.442187 0.358036 0.875727 0.130142 -0.000965 0.198310 -0.919634
5418 0.248603 -0.485057 0.027176 -0.046698 -0.063676 -0.093842 0.085201 -0.213021 -0.154938 -0.207905 0.064743 0.277194 0.006863 0.469163 -0.168227 -0.586617 0.557418 -0.019978 0.302750 0.615583 -0.270612 0.016347 -0.026049 0.243717 0.252918 -0.501743 0.092580 0.694040 0.118077 -0.176398 0.139299 0.522657 0.012597 -0.357211 -0.014198 0.282065 -0.160531 -0.383970 -0.250406 -0.112712 0.140715 -0.724823 0.156618 0.002704 -0.293782 0.634917 -0.255434 -0.185127 -0.176762 -0.266864
377 0.329201 0.568369 0.893751 0.033421 -0.141368 -0.242218 0.147391 -0.698835 0.118646 -0.423448 -0.479254 -0.319952 -0.599445 0.200305 -0.251990 -0.341143 0.342742 -0.325257 -0.229495 0.391272 0.167994 -0.370708 1.156422 -0.043897 -0.245843 -0.787077 0.391335 0.026034 0.249695 -0.541101 0.484858 0.351659 -0.638809 -1.194925 -0.222649 0.122355 -0.287669 0.305961 0.271419 0.991311 -0.022242 0.626122 0.477984 0.398154 -0.033713 0.317677 0.480425 -0.447739 0.291768 0.030047
442 0.265397 -0.564980 0.097317 -0.054752 -0.041860 -0.183864 0.078371 -0.215052 -0.166360 -0.203454 0.057123 0.288208 0.042883 0.498606 -0.131100 -0.651388 0.574434 -0.032744 0.346395 0.585090 -0.303950 0.060658 -0.046663 0.154531 0.225741 -0.563369 0.131582 0.691983 0.122118 -0.238072 0.142319 0.530819 0.023440 -0.326567 -0.024193 0.258994 -0.137444 -0.351764 -0.287699 -0.117026 0.177865 -0.668692 0.180520 0.026061 -0.311903 0.653198 -0.253845 -0.190079 -0.201339 -0.257335
311 0.203717 -0.545851 0.063362 -0.063909 -0.080396 -0.096722 0.009897 -0.242624 -0.239382 -0.220340 0.029804 0.294694 0.006743 0.459980 -0.163427 -0.639739 0.598866 -0.034924 0.325793 0.564753 -0.349241 0.054788 0.016748 0.131477 0.208439 -0.561630 0.116991 0.685844 0.112037 -0.211241 0.114580 0.555234 0.024208 -0.402012 -0.024157 0.232304 -0.144359 -0.394412 -0.276621 -0.070664 0.150200 -0.727634 0.155940 0.010614 -0.280286 0.625539 -0.268833 -0.227861 -0.224872 -0.245667
174 -0.583857 -0.214100 0.127198 -0.308218 -0.313315 0.264544 -0.395878 -0.208370 0.397234 -0.827988 -0.564684 1.313917 -0.516959 0.658933 0.605403 -0.098447 -0.712815 0.064554 -0.285091 0.060545 -0.033958 0.959789 0.746602 0.311090 0.748859 -0.382166 -0.028971 0.297259 0.203251 -0.115464 0.222399 -0.448806 -0.033389 -1.376293 0.223568 0.477051 0.285770 0.258662 -0.275766 -0.073698 0.562057 0.292676 0.351422 -0.450692 0.074591 -0.301543 0.164426 -0.593434 -0.225823 -0.070724
347 -0.855285 0.094367 -0.699284 1.036012 -1.044206 0.011105 1.108826 0.038457 0.686418 -1.430846 -1.028404 -0.241849 0.263889 -0.365507 -1.267172 -0.476187 -0.046509 -1.314214 1.049919 0.088390 -0.432893 0.027147 0.508261 0.696569 0.814940 -0.481044 0.104713 0.784103 1.078417 0.253546 0.039799 0.034230 0.158455 -1.150083 -0.558614 -0.638703 -0.372804 0.397195 0.688085 -0.089178 1.143758 0.994858 0.436985 -0.297252 0.627395 -0.534652 -0.018391 0.789351 -0.788731 -0.901655
499 -0.080186 0.407239 -0.531538 1.049937 0.091605 0.556035 1.032757 0.337372 1.523631 -0.467004 -1.682452 0.156279 0.016163 1.856849 0.286567 -0.534556 -0.414662 0.507809 -0.270373 -0.867461 0.249415 0.309855 1.311013 0.475725 0.528243 -0.447221 0.237347 0.172811 0.043643 -0.323934 0.063098 0.844836 0.537654 0.495082 -0.788708 -0.562878 0.177229 0.407358 0.401585 0.217081 -0.282569 -0.090884 -0.813408 0.809413 -0.247296 0.653924 0.617401 -1.326150 0.512039 -0.728156
262 -0.453140 1.363248 -0.701759 1.212832 -0.436577 0.561691 0.908978 0.810942 1.454255 -0.706465 -1.193349 0.032569 0.283719 1.778713 0.708738 -0.914943 -0.398931 0.782643 0.170780 -0.416708 0.084768 0.804459 1.317830 -0.072305 0.743008 -0.704427 0.437821 -0.249963 0.279049 -0.021560 0.377352 1.431749 0.359348 0.398545 -1.072741 -0.811596 -0.508814 0.256743 0.245192 0.272544 -0.323053 -0.494238 -0.826699 0.950276 -0.086187 0.395920 0.143908 -1.758527 -0.017931 -0.484832
156 -0.834192 -0.170621 -0.428114 0.976566 -0.853340 0.111578 1.342511 0.028088 0.839398 -1.880412 -1.074735 -0.533224 0.227246 -0.541516 -1.292231 -0.592239 -0.077514 -1.274716 1.288220 0.405224 -0.267511 0.083497 0.907341 0.686975 0.507962 0.103256 0.442189 0.618094 1.277702 0.443385 -0.213658 0.421509 0.233192 -0.988840 -0.523723 -0.496131 -0.394450 0.627863 0.558063 0.149596 0.933370 0.645381 0.062384 -0.094267 0.637386 -0.762390 -0.288921 0.539354 -0.984322 -1.189508
207 -0.210909 0.174498 -0.693745 0.584473 0.599145 0.311771 1.180802 -0.039998 1.432501 -0.150013 -1.182540 0.121638 -0.458376 2.323236 0.079477 -0.571921 -0.616626 0.087716 -0.540523 -0.962361 -0.255437 -0.094690 1.669758 1.016671 0.442236 -0.539503 0.197925 0.837636 0.215851 -0.051352 0.725115 0.290713 0.394099 0.348954 -0.513902 -0.163432 0.306465 0.231146 0.474710 -0.414148 -0.441533 -0.110582 -0.603177 0.889687 -0.522353 0.234954 0.933440 -0.477589 0.521446 -0.813747
431 -0.428309 -0.100994 -0.871751 0.616872 0.070434 0.075822 0.123460 0.014676 0.295830 0.065262 -0.214158 0.211090 0.247380 0.281676 -0.515942 -0.624235 -0.329101 -0.157540 0.031104 0.095571 -0.103080 0.029945 0.318824 0.100052 0.443089 0.477965 0.701665 -0.059337 -0.156081 -0.678245 -0.397684 0.139746 -0.228876 -1.055486 0.228290 0.429871 0.015112 0.695458 0.167795 -0.396170 -0.643261 0.367684 0.177348 0.246223 0.032016 0.060354 -0.608817 -0.127363 0.382447 0.163564
773 -0.437599 -0.086461 -0.781691 0.659820 0.070126 0.059956 0.122918 0.062344 0.338496 0.101900 -0.149668 0.255714 0.247818 0.279886 -0.520197 -0.753523 -0.369072 -0.168908 0.018469 0.109715 -0.146853 0.033823 0.343742 0.064986 0.430684 0.497821 0.793220 -0.051304 -0.231344 -0.646273 -0.503781 0.075914 -0.094236 -1.094128 0.237023 0.405697 -0.003337 0.757791 0.177699 -0.318382 -0.688050 0.276783 0.202805 0.227614 0.021567 0.083615 -0.634173 -0.099564 0.305683 0.135751
497 -0.051574 0.238892 0.408606 -0.000875 0.672745 0.955194 0.580063 -0.019460 0.958104 -0.787539 -1.152783 1.764296 -0.430132 0.146416 0.639417 -1.121612 -0.564954 0.408167 0.299332 0.680849 0.116111 0.674699 0.506876 -0.373887 0.571434 -0.232395 -0.004667 -0.321157 0.360063 0.214269 -0.210338 -0.531632 0.001654 -0.509633 0.196253 0.455671 -0.031711 0.446692 -0.422272 -0.005945 0.806710 0.699926 0.713541 -0.373306 -0.424093 -0.228841 0.157282 -0.404093 -0.371076 -0.484424
296 -0.221600 0.635828 0.746634 1.170246 -0.715268 0.198445 1.204617 -0.496008 -0.288925 -0.058555 -0.134800 -0.195139 0.285971 0.251626 -0.039866 -0.098446 -0.157254 0.598418 0.499163 -0.909465 0.194320 0.410322 0.665529 0.142734 0.365082 -1.018810 -0.004924 0.560160 0.908198 0.084027 -0.570992 -0.310227 0.700431 -0.678120 0.312219 1.109114 -0.131530 0.627056 -0.932458 -0.301916 -0.426083 -0.178336 1.117598 -0.257371 0.087867 0.359158 -0.221052 -0.180782 0.929976 -0.264504
1246 -0.159403 -0.614466 0.687158 0.316199 -0.496698 -0.375864 0.338410 0.007394 0.184055 -0.095868 -0.293786 0.064264 -0.280452 0.268677 -0.485097 -0.057494 0.107932 0.234522 0.019376 0.400417 -0.047473 0.231359 0.070257 0.740089 0.529730 -0.391122 0.072988 0.086529 -0.755053 0.193117 0.197361 0.861712 -0.234826 0.064784 -0.404035 -0.288528 0.499080 0.405818 -0.748645 -0.339125 0.281228 -0.530880 0.198186 -0.169415 -0.137109 0.362201 -0.847440 -0.640114 0.037031 -0.237880
348 -0.250243 -0.368161 0.275465 -0.282708 -0.079564 0.401558 0.049824 -0.128023 0.775624 -0.918813 -0.919235 1.192788 -0.093369 0.772252 0.650040 -0.418210 -0.717894 0.334782 0.022104 0.165502 0.138154 0.920612 0.432717 0.199844 0.522938 -0.338043 0.034476 0.175461 0.000480 -0.170483 -0.131257 -0.378323 -0.069280 -1.141298 0.218110 0.263153 0.228912 0.194007 -0.517593 0.073035 0.927906 0.521529 0.793690 -0.544567 0.070183 -0.496935 0.223380 -0.954814 0.111300 0.317751
5498 -0.179170 -0.583389 0.679372 0.278225 -0.452475 -0.397122 0.307933 -0.017974 0.146995 -0.021946 -0.261445 0.085904 -0.319086 0.294460 -0.517132 -0.053936 0.076748 0.196369 0.002986 0.465202 -0.098787 0.253012 0.123527 0.769796 0.496526 -0.371182 0.051016 0.110614 -0.742363 0.202447 0.144525 0.802660 -0.147320 0.070078 -0.445430 -0.217477 0.518479 0.361417 -0.739506 -0.316629 0.302947 -0.487403 0.232817 -0.181222 -0.127435 0.360683 -0.862946 -0.567965 0.083543 -0.252617
586 -0.439105 -0.188884 0.505967 -0.251574 -0.481277 0.348267 -0.606076 0.265586 0.666117 -0.527065 -0.563474 1.577155 -0.499937 0.797024 1.121700 -0.532842 -0.909272 0.026355 -0.030606 0.063388 0.238326 1.507227 1.128301 0.410233 0.301277 -0.206024 -0.232321 0.650280 0.423595 -0.375119 -0.093725 -0.267922 0.219532 -1.661276 -0.166136 0.310556 0.250601 -0.033098 -0.081405 0.231584 0.359488 0.187947 0.982455 -0.412848 0.219452 -0.608759 -0.347753 -0.712590 -0.186543 0.044003
713 -0.138368 -0.680667 0.670521 0.326065 -0.509606 -0.381237 0.302568 0.026618 0.188891 -0.039398 -0.261943 0.122345 -0.314320 0.264817 -0.508077 -0.054574 0.074758 0.207156 -0.005996 0.418651 -0.072961 0.276179 0.160727 0.774105 0.495776 -0.404921 0.074218 0.191096 -0.741682 0.149441 0.173083 0.827991 -0.168244 0.108253 -0.474488 -0.248193 0.469951 0.368441 -0.709494 -0.341540 0.285961 -0.503901 0.272454 -0.208679 -0.092417 0.348346 -0.840415 -0.626312 0.075363 -0.231992
340 -1.218875 0.374510 -0.112027 1.674242 -1.210544 -0.148186 0.852154 -0.092896 0.400563 -1.021020 -0.503667 -0.209531 -0.425748 -0.210128 -0.822836 -0.467939 0.581956 -1.288236 1.393349 -0.325871 -0.227824 0.348752 0.469533 1.024496 1.113682 -0.024421 -0.273280 0.601941 0.984846 -0.561395 -0.431487 0.360992 -0.298495 -1.137906 -0.368587 -0.637495 1.019655 0.743583 0.938613 0.011168 1.199656 0.702956 0.784163 0.023133 0.362074 -0.980887 0.495352 0.474263 -0.844036 -0.992154
577 -0.469078 0.623154 -0.212278 1.599722 -1.092647 -0.309022 0.325240 -0.173925 0.281736 -1.018686 0.211607 0.247540 -0.132012 0.121335 -0.489590 -0.402272 0.568631 -1.104117 1.680758 -0.888446 -0.858725 -0.142203 0.718345 1.325402 1.321218 -0.105029 0.433986 0.737320 0.784635 -0.424247 -0.463754 0.058002 -0.597559 -0.811656 -0.970936 -0.784646 0.415356 0.649175 0.431509 0.081168 1.244724 0.466586 0.824000 -0.758263 0.430583 -0.794658 0.757234 0.280572 -0.184560 -0.724138
339 0.291856 0.704468 1.005902 0.002335 -0.235088 -0.233794 -0.047780 -0.595990 0.160742 -0.460055 -0.929705 -0.375613 -0.690548 0.233702 -0.426365 -0.226517 0.304532 -0.302117 -0.534132 0.498355 0.541742 -0.424723 0.958553 -0.153856 -0.045463 -0.984909 0.431193 -0.016838 0.174421 -0.491255 0.243817 0.278701 -0.835596 -1.285327 0.023753 -0.212498 -0.007217 0.285794 0.338640 0.947400 -0.180315 0.701791 0.405543 0.580966 0.268997 0.442144 0.283951 -0.363266 0.501435 -0.222773
449 -1.072677 0.914398 0.073637 0.767599 1.038900 -0.662809 0.889199 -0.670893 -0.186375 0.211351 -0.617495 1.263694 0.731136 -0.499223 -0.487227 -0.184160 -0.390265 -0.361441 -0.303985 0.023015 -0.078425 -0.611090 0.484524 -0.379174 0.362966 -0.211868 -0.071343 0.520829 0.499525 0.380373 0.285815 0.833765 -0.014755 -1.091381 -0.416819 0.441843 0.559053 -1.039561 -0.212311 -0.556770 0.486790 -0.156354 0.133972 0.336047 0.473790 -0.150220 0.370949 -1.487494 0.295786 0.001781
463 -0.638222 0.454531 1.114613 -0.199387 0.791129 -1.106238 1.083283 -0.346974 0.228831 0.583420 -1.017106 1.028291 0.637965 -0.009589 -0.450307 -0.425620 -0.472873 -0.852304 -0.046186 0.202346 -0.115092 -0.894730 0.576331 0.197105 0.386337 -0.622310 0.580009 0.020081 0.470905 0.224728 -0.512753 0.393192 0.466926 -1.326078 -0.314984 -0.419345 0.720742 -0.459991 -0.235537 -0.708355 0.547008 -0.319910 -0.294907 0.286942 -0.272171 -0.763069 -0.204259 -0.765358 0.564028 0.736879
1228 0.214721 -0.257491 0.625440 0.348287 0.174262 -0.402478 0.098686 -0.093683 0.081238 0.260801 -0.153818 0.398306 -0.499082 0.036618 -0.368053 -0.626850 -0.249473 -0.041605 0.281951 0.614453 -0.241947 0.400208 -0.156332 0.903929 0.208688 -0.156601 -0.104118 0.865417 -0.240342 0.436428 -0.079274 -0.178386 -0.704242 -0.012331 -0.753001 -0.409668 -0.001387 -0.081493 -0.149756 -0.075369 -0.458628 0.060858 0.088646 -0.805122 -0.084762 0.860561 -0.340045 -0.222509 -0.333634 -0.865651
1748 0.257502 -0.277279 0.665971 0.286366 0.151977 -0.371838 0.116710 -0.097950 0.065459 0.273918 -0.145508 0.352408 -0.452499 0.056912 -0.440679 -0.607281 -0.270764 0.013844 0.256499 0.607800 -0.231735 0.414434 -0.179430 0.929021 0.161089 -0.227513 -0.107005 0.818970 -0.227241 0.426291 -0.090350 -0.184900 -0.703267 -0.043079 -0.761651 -0.402438 0.038391 -0.020364 -0.190423 -0.115490 -0.507840 -0.021055 0.109479 -0.765995 -0.128553 0.831235 -0.338479 -0.251896 -0.289676 -0.816376
378 0.282681 0.128880 0.071483 0.678861 -0.208367 1.297186 0.391697 0.008002 -0.514076 0.637549 -0.588449 0.724417 -0.405443 0.580532 -1.356356 0.748319 -0.057718 0.633850 0.330053 1.474376 0.668793 -0.188692 0.940073 0.406101 1.040845 -0.758959 1.403695 0.777693 0.560428 -0.207026 -0.240796 0.940532 1.533885 -1.076407 -0.718771 -0.562499 0.189821 -0.199969 -0.944742 -0.133513 -1.012349 1.640415 -0.133539 -0.320628 -0.604913 -0.637961 0.751438 0.219816 0.836508 -0.384314
1761 0.282502 -0.215538 0.580651 0.286641 0.157908 -0.372179 0.154052 -0.158377 0.011558 0.302010 -0.155641 0.353893 -0.432303 0.064405 -0.404465 -0.652894 -0.233003 -0.083160 0.273280 0.617024 -0.262399 0.490818 -0.199632 0.842301 0.192516 -0.228327 -0.093160 0.873714 -0.214711 0.452186 -0.083413 -0.215742 -0.763613 -0.039484 -0.787180 -0.401863 0.051419 -0.054715 -0.166603 -0.055477 -0.469256 0.014073 0.117364 -0.804617 -0.093887 0.869795 -0.357115 -0.205968 -0.307317 -0.890237
824 -0.171573 0.650612 -0.186582 1.296842 -1.216109 -0.372890 0.375548 0.005812 0.513698 -0.929451 0.359242 0.282451 -0.024512 0.339010 -0.387492 -0.422545 0.700695 -1.150104 1.661878 -0.869424 -0.670468 -0.151260 0.728171 1.288573 1.331826 -0.284540 0.673925 0.763164 0.765866 -0.455316 -0.535056 0.071704 -0.425956 -0.828296 -1.139564 -0.973921 0.424893 0.579617 0.332226 0.003098 1.352962 0.449884 0.761066 -0.617982 0.638350 -0.905744 0.417699 0.562352 -0.072884 -0.692976
81 -0.134907 0.115882 1.163617 1.362479 0.440100 -0.010100 0.987084 -0.476155 0.847558 -0.790429 0.816889 0.620345 1.249703 0.252528 -0.780248 0.460371 0.558965 1.229794 0.138258 0.116964 0.376978 -0.924423 1.062237 -0.278687 0.759236 -0.649128 -0.070289 -0.435996 -0.628450 -0.366897 -0.348996 -0.560543 -0.048474 -1.547418 -0.059259 0.578274 -0.720463 -0.363829 1.015232 0.490650 0.547006 0.181908 -0.050883 -0.934734 -1.769138 -0.332673 -0.639312 -0.796688 0.353769 -1.174528
1222 0.407546 0.553332 -0.771038 0.086156 -0.177495 -0.188943 1.962662 -0.686324 -0.630668 0.104331 -0.168891 1.266768 -1.514903 0.371325 0.099895 -0.564293 -0.293952 1.859535 -0.841687 0.325214 0.521889 -0.466893 -0.249064 0.998960 1.464821 0.252111 -0.643288 1.218464 -0.252835 -0.172023 -1.597014 0.651014 -0.671861 -1.830251 -0.005529 -0.870671 -1.848796 -0.312234 0.879872 1.181908 1.070764 -0.297131 0.299293 -0.158577 0.085057 -0.449350 0.285227 -0.382189 0.611329 0.225422
1831 0.228791 -0.313804 0.606607 0.320718 0.228720 -0.393914 0.119137 -0.104021 0.054452 0.303305 -0.115802 0.382679 -0.508409 0.028295 -0.396582 -0.661985 -0.247907 -0.104781 0.264964 0.588090 -0.230040 0.434055 -0.150754 0.899197 0.214307 -0.275168 -0.104547 0.881789 -0.290911 0.429880 -0.054887 -0.209241 -0.720673 -0.013493 -0.777083 -0.404721 0.020336 -0.059460 -0.159482 -0.090782 -0.471765 -0.004735 0.140088 -0.799467 -0.084345 0.848406 -0.338513 -0.271100 -0.321487 -0.849052
1745 0.253575 -0.264829 0.628196 0.346959 0.179676 -0.396652 0.184933 -0.088250 0.111814 0.275280 -0.131872 0.400915 -0.514214 -0.025391 -0.453485 -0.623795 -0.291692 -0.029299 0.273094 0.619077 -0.209122 0.455825 -0.179803 0.949152 0.195175 -0.240135 -0.138011 0.864415 -0.276056 0.430393 -0.071384 -0.154933 -0.691770 -0.036823 -0.776622 -0.378810 0.043181 -0.084721 -0.147927 -0.087153 -0.477188 0.030333 0.141210 -0.866564 -0.069491 0.866166 -0.348628 -0.257364 -0.344150 -0.846053
1821 0.258335 -0.262652 0.620462 0.331399 0.235232 -0.412302 0.151179 -0.094423 0.048481 0.304018 -0.073036 0.345262 -0.502771 0.044890 -0.405029 -0.655155 -0.202872 -0.084405 0.295756 0.595174 -0.209031 0.435840 -0.162489 0.916870 0.224104 -0.264851 -0.087533 0.800862 -0.246113 0.457043 -0.090763 -0.224432 -0.734201 -0.002389 -0.798557 -0.354104 0.014686 -0.041142 -0.204828 -0.056067 -0.496965 0.036871 0.166751 -0.788777 -0.099673 0.903116 -0.329542 -0.314227 -0.264561 -0.859092
310 -0.179077 0.023378 1.042169 0.989101 0.330715 -0.466580 0.687787 -0.253346 1.253657 -0.462602 0.456542 0.519334 1.196127 0.424071 -0.901885 1.113073 0.530199 1.206628 0.394402 0.150788 0.129511 -0.709003 1.045417 -0.140616 0.790136 -1.060527 -0.277162 0.163311 -0.606956 -0.237512 -0.461931 -0.628067 -0.160026 -1.562160 -0.378660 0.429810 -0.238336 -0.552566 1.124214 0.429899 0.126840 0.278711 -0.276117 -0.822017 -1.436074 -0.757788 -1.143662 -0.616716 0.942547 -1.039233
1835 0.264169 -0.235420 0.680855 0.273308 0.201274 -0.358555 0.146449 -0.139441 0.052418 0.293434 -0.108114 0.395949 -0.451854 -0.003314 -0.410223 -0.673537 -0.234973 -0.057661 0.269423 0.574345 -0.292781 0.416017 -0.146882 0.887084 0.235367 -0.264907 -0.131101 0.840033 -0.253738 0.400524 -0.056447 -0.230843 -0.758804 -0.010058 -0.753553 -0.418032 0.005625 -0.080140 -0.207754 -0.089238 -0.507584 0.021021 0.077306 -0.831009 -0.078622 0.851529 -0.354278 -0.214232 -0.332214 -0.862497
718 -0.233956 -0.165615 0.116456 -0.323781 0.398636 0.205078 -0.140989 -0.337251 0.953919 -0.889617 -1.272097 1.612312 -0.129227 0.417254 0.150395 -0.560938 -1.198205 0.061586 0.130456 0.532146 -0.129227 0.816247 0.067007 0.214362 0.107079 -0.635924 -0.308361 0.304813 0.208125 -0.018904 -0.226524 -1.023656 -0.413513 -1.076350 -0.056745 0.476506 -0.359461 0.335708 -0.508718 0.185200 0.440144 0.404922 0.812126 -0.707538 -0.169617 -0.478123 0.628121 -0.583628 0.192329 -0.370370
494 -0.135677 0.094099 1.190404 1.169505 0.292267 -0.227802 0.737508 -0.237084 1.005052 -0.664192 0.570745 0.693659 1.192100 0.338556 -0.861963 0.893753 0.433295 1.299787 0.288188 0.146759 0.135722 -0.872126 1.015893 -0.270287 0.844478 -0.838271 -0.136815 0.098198 -0.548948 -0.213537 -0.413302 -0.587378 -0.058467 -1.500733 -0.194267 0.453933 -0.563125 -0.445227 0.971403 0.376322 0.401765 0.272846 -0.308613 -0.944645 -1.507125 -0.638412 -0.994863 -0.569783 0.705614 -1.153142
238 -0.739335 0.066398 -0.803650 0.801935 -0.983758 -0.197929 1.181006 -0.266777 0.682125 -1.668405 -1.417012 -0.587462 0.390039 -0.503138 -1.499166 -0.510244 0.071034 -1.223511 1.130824 0.312086 0.031687 0.088518 0.595537 0.891482 0.877429 -0.594412 0.338617 0.543431 1.147385 0.300256 -0.041602 0.329249 0.098448 -1.101377 -0.481698 -0.486286 -0.604468 0.466583 0.761668 -0.162139 1.213869 0.610060 0.103533 0.105466 0.571643 -0.704291 -0.077214 0.877278 -0.958530 -1.103105
268 0.107686 0.742183 0.691705 0.686131 -0.496022 -0.106539 1.327468 -0.637887 -0.216944 -0.000126 -0.354174 0.043661 0.210128 0.450928 -0.187671 0.243549 -0.194373 1.073438 0.457804 -0.874383 -0.236556 0.307084 0.721016 -0.119917 -0.151218 -0.570777 0.395066 0.858117 0.806742 -0.153642 -0.717764 -0.149335 0.685884 -0.576744 0.330294 0.826113 -0.227446 1.075779 -0.953254 -0.229405 0.024733 -0.082959 1.093589 0.240478 0.460291 0.004468 -0.505577 -0.448058 0.609524 -1.136132
633 -0.158043 0.561214 -0.123035 1.519220 -1.214190 -0.265763 0.233396 0.031273 0.547108 -0.954200 0.246023 0.435919 0.046201 0.258911 -0.482581 -0.487083 0.715064 -1.176897 1.449217 -0.902346 -0.766475 -0.180160 0.629777 1.387684 1.281429 -0.176002 0.621721 0.634812 0.724181 -0.506209 -0.472405 0.171446 -0.467898 -0.894443 -1.038945 -0.938783 0.363577 0.630323 0.314107 0.047244 1.383178 0.514167 0.757222 -0.831791 0.594374 -0.739228 0.480830 0.492531 -0.135150 -0.699515
70 -0.583228 0.724395 0.340124 0.612642 -0.020485 -0.666591 1.023330 -0.751929 0.004498 0.072214 -0.335801 -1.033448 -0.165694 0.426882 0.064807 0.607416 -0.561875 0.492602 0.867083 -0.345325 0.017219 0.641696 1.194078 -0.125065 0.816711 -0.772429 0.326941 0.864008 0.730402 0.071388 -1.497583 -0.783403 0.863636 -0.789119 -0.139105 0.834193 -0.432332 0.677933 -0.818522 -0.167808 -0.807150 -0.825958 1.174017 -0.188519 -0.029945 0.451689 -0.211642 0.123082 -0.171938 -0.585636
441 -0.641212 -0.080786 0.545652 0.676833 0.237288 -0.536953 0.701070 -0.300753 0.802594 -0.810036 0.983071 0.502537 0.963527 0.623127 -0.674763 1.170958 0.879792 0.887231 -0.217442 0.010290 0.428078 0.030238 1.356172 -0.084042 1.174887 -0.931325 0.273713 0.289974 -0.612585 -0.344768 -0.203524 -1.089007 -0.405584 -1.785074 -0.603779 0.509170 -0.327572 -0.565493 1.224808 0.444296 -0.555413 0.176874 0.019031 -1.000801 -1.852770 -1.202509 -0.737890 -0.725135 1.120943 -0.961280
300 0.011241 0.715598 0.907444 0.053299 -0.029413 -0.306813 0.009270 -0.408783 0.365629 -0.407154 -0.280926 -0.422177 -0.379087 0.096554 -0.186850 -0.239055 -0.162087 -0.120886 -0.328113 0.019455 -0.388646 -0.418217 0.710713 -0.288390 0.547245 -0.130419 0.521931 0.372315 0.286554 -0.118468 0.523437 0.327472 -0.624451 -1.001303 0.379836 0.017653 -0.166280 0.326497 -0.071577 0.907847 -0.118684 0.597035 0.249568 0.042825 0.089427 0.666184 0.476113 -0.300477 0.586473 0.150475
538 -0.220029 -0.014880 0.965007 1.133300 0.215442 -0.397652 0.864302 -0.266293 1.065466 -0.487150 0.491902 0.599071 1.183442 0.307409 -0.990764 1.017809 0.504316 1.285357 0.273541 0.222760 0.082513 -0.717269 1.017292 -0.078747 0.728718 -0.872490 -0.309491 0.201123 -0.659207 -0.273721 -0.341822 -0.738392 -0.157118 -1.438242 -0.474733 0.580058 -0.378753 -0.533312 1.035459 0.443492 0.179630 0.273823 -0.326580 -0.849975 -1.459596 -0.720975 -0.997267 -0.624427 0.854740 -1.124696
176 -0.607664 -0.105960 0.120244 -0.534490 0.265894 0.462838 -0.001570 -0.586191 0.903212 -1.039352 -1.054700 1.145806 -0.080938 0.611305 0.245473 -0.402889 -1.024597 -0.089152 0.099277 0.382847 -0.057769 0.425616 0.161462 -0.187549 0.264661 -0.562890 -0.013379 0.310335 -0.230204 0.083606 -0.342755 -0.767702 -0.161098 -1.045727 0.098351 0.430987 -0.386120 0.303364 -0.530753 0.291802 0.524816 0.448416 0.567394 -0.485084 0.001626 -0.316722 0.418793 -0.313032 0.000290 -0.131361
366 0.075751 0.350686 -0.604916 1.051408 0.230775 0.405118 0.911012 0.295678 1.509554 -0.324058 -1.764976 0.293932 -0.194475 1.809193 0.137768 -0.505241 -0.417769 0.396539 -0.253037 -0.868719 0.153238 0.121968 1.285372 0.650587 0.620713 -0.310269 0.193508 0.371708 0.134358 -0.259843 -0.055236 0.602133 0.497955 0.598162 -0.699968 -0.440396 0.203803 0.352546 0.486558 0.017443 -0.333388 -0.194231 -0.717577 0.774684 -0.300746 0.585023 0.720556 -1.117812 0.705885 -0.812423
896 -0.163371 0.322354 -0.661784 0.430936 0.524848 0.133200 0.999996 -0.044222 1.503590 -0.148172 -1.288766 0.047415 -0.307890 2.301291 0.020727 -0.509956 -0.847909 0.041206 -0.469986 -0.790293 -0.414622 -0.227129 1.547929 0.795195 0.441251 -0.553459 0.223793 0.877182 0.048394 -0.043486 0.636628 0.120242 0.397829 0.194383 -0.301304 -0.408919 0.227335 0.133388 0.381274 -0.578188 -0.492250 -0.258035 -0.468266 0.874072 -0.582852 0.489794 1.174324 -0.255342 0.513997 -0.826715
10 -0.039738 0.002260 1.207482 0.944922 0.422417 -0.425032 0.796229 -0.206309 1.070181 -0.296198 0.630177 0.520291 1.195147 0.417128 -0.636450 0.738035 0.562644 1.462756 0.416598 0.024833 0.009657 -0.750452 1.024671 0.083060 0.770290 -1.017869 -0.304050 0.089389 -0.431114 -0.199329 -0.260776 -0.768607 -0.142360 -1.590947 -0.439086 0.331757 -0.409619 -0.644044 1.019581 0.364142 0.151403 0.360337 -0.303580 -1.042049 -1.410577 -0.628870 -1.250448 -0.761789 0.854083 -1.186141
1135 -0.420995 -0.767748 -0.024649 0.087747 0.528874 -0.132446 0.358976 0.031745 -0.034367 0.398436 -0.168113 -0.271631 -0.335824 0.467376 -0.173552 -0.624247 0.198807 0.044025 0.090389 0.105392 0.240132 -0.027409 -0.047206 -0.128903 0.637817 -0.371834 0.063807 0.312251 0.153300 0.581078 0.481308 0.540996 -0.092786 -0.380802 -0.438161 0.193874 0.168052 0.102427 -0.081955 0.179014 0.375900 -0.259512 0.215150 -0.497848 0.182847 0.204923 -0.487906 0.137225 0.129429 -1.165925
252 -0.054596 -0.206448 0.378861 0.115742 0.082414 0.007787 -0.032173 0.262616 0.179679 -0.236447 0.065665 0.356211 -0.364511 0.131794 -0.658785 -0.432512 -0.051049 -0.066589 0.017024 0.820913 0.180225 0.002361 0.116827 0.164993 0.543216 -0.259198 0.115983 0.615496 -0.337203 0.232273 -0.127489 0.102236 0.432792 0.297861 -0.613819 0.077078 0.363338 0.227726 -0.096901 0.199826 0.249294 -0.752072 0.237621 0.009616 0.299441 0.551662 -0.560165 -0.293264 0.353075 -0.716351
479 0.074736 0.828925 0.542515 0.732639 -0.600807 -0.279728 1.314850 -0.611952 -0.252360 -0.001559 -0.218913 -0.025844 0.181131 0.391570 -0.164102 0.351067 -0.195049 1.098398 0.616988 -0.831932 -0.217353 0.445754 0.768097 -0.129008 0.040568 -0.481746 0.425244 0.842565 0.864817 -0.071176 -0.792895 -0.184076 0.602081 -0.592345 0.241031 0.851588 -0.230836 0.860075 -0.926680 -0.178065 -0.014557 -0.160429 0.976904 0.215701 0.415628 0.068001 -0.384036 -0.456004 0.482356 -1.133917
433 -0.548962 0.567642 0.468308 0.375961 1.176975 -1.196374 1.178380 -0.604980 -0.102139 0.353796 -1.151975 0.616350 0.778672 0.300772 -0.306125 -0.239836 -0.675281 -0.668448 0.081809 0.211804 -0.475898 -0.890130 0.525671 -0.022640 0.079477 -0.184606 0.203081 0.468244 0.398463 0.191714 -0.492255 0.039990 0.289819 -1.179879 -0.338390 -0.561242 0.353365 -0.852298 -0.568336 -0.259365 0.600116 0.110946 0.159764 0.504145 -0.323887 -0.452724 -0.012264 -1.000448 -0.056049 0.211414
321 0.125152 0.769998 0.637700 0.696517 -0.672421 -0.333789 1.137594 -0.503913 -0.426211 -0.197357 -0.509174 0.131437 0.204859 0.309530 0.060163 0.274049 -0.123499 0.865761 0.372914 -1.132664 -0.287935 0.396912 0.446020 -0.119190 0.269096 -0.669580 0.613086 0.837260 0.912967 -0.138775 -0.811884 -0.072807 0.637511 -0.678763 0.391228 0.772994 -0.381488 1.025216 -0.910168 -0.065170 -0.248760 -0.237743 1.173347 0.258510 0.084767 -0.091493 -0.487901 -0.255616 0.822836 -1.185539
213 -0.123743 -0.173357 0.428670 0.168042 0.102108 -0.017295 -0.103636 0.339166 0.173922 -0.323092 0.094385 0.342514 -0.326764 0.135057 -0.692314 -0.421356 -0.042194 -0.073608 -0.018827 0.803628 0.138490 0.028510 0.062565 0.171731 0.528655 -0.215850 0.139635 0.645052 -0.339362 0.201872 -0.100467 0.152659 0.432703 0.364972 -0.612094 0.149293 0.332975 0.244831 -0.111581 0.258530 0.273410 -0.731683 0.239720 0.006834 0.290013 0.511584 -0.560820 -0.319469 0.400674 -0.714816
205 -0.085441 -0.189544 0.424022 0.166588 0.093739 0.022342 -0.110074 0.278430 0.150578 -0.254647 0.089578 0.356167 -0.338252 0.113939 -0.637844 -0.425607 -0.041603 -0.067857 0.041298 0.831790 0.143037 0.039364 0.131843 0.208759 0.528866 -0.210588 0.186903 0.627992 -0.305994 0.220219 -0.108522 0.100118 0.417804 0.343505 -0.549951 0.097567 0.304775 0.226318 -0.077829 0.180069 0.241280 -0.739335 0.231346 0.057392 0.263790 0.541101 -0.594286 -0.326752 0.356726 -0.720131
200 -0.156637 -0.028861 1.098588 1.234566 0.368081 -0.214925 0.900882 -0.262684 1.027712 -0.718309 0.602760 0.461414 1.129184 0.244777 -0.945231 0.735088 0.313241 1.257967 0.288661 0.086052 0.100516 -0.834515 0.950030 -0.354667 1.009325 -0.685957 -0.167057 0.044742 -0.629040 -0.172654 -0.313921 -0.742709 -0.033495 -1.491892 -0.210041 0.661401 -0.439552 -0.550404 1.086841 0.379148 0.275627 0.363917 -0.107098 -0.865812 -1.553285 -0.632510 -0.763124 -0.505014 0.458728 -1.174785
1769 -0.020413 -0.514967 -0.147506 -0.489000 0.653022 0.171815 0.656582 -1.948058 1.789840 -0.288891 -0.163707 0.869861 0.638148 -1.223043 0.247565 -0.556747 -0.070058 0.157231 -0.655200 0.467094 -0.024557 -0.387111 1.122897 1.133377 2.774111 -0.068637 -0.643378 0.398255 1.237877 -0.980997 0.099269 0.328051 0.047468 -0.369879 -0.075736 -0.812883 0.141160 0.308141 -0.930025 0.612695 -1.377235 -0.358329 -0.031084 -0.452011 1.024319 -0.409970 -0.459915 -0.116130 0.194339 -0.613311
489 0.125452 0.162904 -0.069088 0.987116 -0.125454 1.230223 0.261335 0.127803 -0.769056 0.449386 -0.360336 0.636689 -0.764681 0.723769 -1.384932 0.903057 -0.132897 0.536203 0.553973 1.485156 0.685969 0.038946 1.004663 0.366724 1.243873 -0.496679 1.503915 0.690230 0.570852 -0.267707 -0.246306 0.985648 1.269116 -1.051081 -1.128704 -0.495352 0.236473 -0.429849 -0.987545 -0.020171 -1.166802 1.983883 -0.200109 -0.567684 -0.710981 -0.462171 0.909660 -0.031628 1.006187 -0.176416
1927 -0.425163 -0.806789 -0.004379 0.159377 0.505938 -0.263705 0.357171 -0.102379 -0.074078 0.425120 -0.177991 -0.095300 -0.350937 0.580411 -0.091437 -0.580480 0.270077 0.108213 0.010490 0.025116 0.317392 0.054233 -0.075500 0.026442 0.522449 -0.263739 0.110177 0.297076 0.292156 0.501319 0.566715 0.465747 -0.120516 -0.318406 -0.384921 0.182040 0.140460 0.256933 -0.189335 0.259300 0.429013 -0.215438 0.196274 -0.393573 0.093761 0.141271 -0.554363 0.124477 0.229096 -1.182797
